<?xml version="1.0" encoding="US-ASCII"?>

<!--
  Bayesian network in XMLBIF v0.3 (BayesNet Interchange Format)
  Produced by SamIam http://reasoning.cs.ucla.edu/samiam
  Output created 6 juil. 2017 08:59:48
-->

<BIF VERSION="0.3">
<NETWORK>
  <NAME>bayesiannetwork</NAME>

  <VARIABLE TYPE="nature">
    <NAME>ntilg</NAME>
    <OUTCOME>x_75</OUTCOME>
    <OUTCOME>x75_90</OUTCOME>
    <OUTCOME>x90_105</OUTCOME>
    <OUTCOME>x105_120</OUTCOME>
    <OUTCOME>x120_135</OUTCOME>
    <OUTCOME>x135_150</OUTCOME>
    <OUTCOME>x150_165</OUTCOME>
    <OUTCOME>x165_180</OUTCOME>
    <OUTCOME>x180_195</OUTCOME>
    <OUTCOME>x_195</OUTCOME>
    <PROPERTY>position = (0, -450)</PROPERTY>
  </VARIABLE>

  <VARIABLE TYPE="nature">
    <NAME>nedbarea</NAME>
    <OUTCOME>x1___375_</OUTCOME>
    <OUTCOME>x2__375_500_</OUTCOME>
    <OUTCOME>x3___500_</OUTCOME>
    <PROPERTY>position = (150, -150)</PROPERTY>
  </VARIABLE>

  <VARIABLE TYPE="nature">
    <NAME>s2225</NAME>
    <OUTCOME>x0_1</OUTCOME>
    <OUTCOME>x1_5</OUTCOME>
    <OUTCOME>x5_10</OUTCOME>
    <OUTCOME>x10_15</OUTCOME>
    <PROPERTY>position = (300, -525)</PROPERTY>
  </VARIABLE>

  <VARIABLE TYPE="nature">
    <NAME>saakern</NAME>
    <OUTCOME>x_175</OUTCOME>
    <OUTCOME>x175_225</OUTCOME>
    <OUTCOME>x225_275</OUTCOME>
    <OUTCOME>x275_325</OUTCOME>
    <OUTCOME>x325_375</OUTCOME>
    <OUTCOME>x375_424</OUTCOME>
    <OUTCOME>x_450</OUTCOME>
    <PROPERTY>position = (0, -225)</PROPERTY>
  </VARIABLE>

  <VARIABLE TYPE="nature">
    <NAME>ngtilg</NAME>
    <OUTCOME>x_45</OUTCOME>
    <OUTCOME>x45_60</OUTCOME>
    <OUTCOME>x60_75</OUTCOME>
    <OUTCOME>x75_90</OUTCOME>
    <OUTCOME>x90_105</OUTCOME>
    <OUTCOME>x105_120</OUTCOME>
    <OUTCOME>x120_135</OUTCOME>
    <OUTCOME>x135_150</OUTCOME>
    <OUTCOME>x150_165</OUTCOME>
    <OUTCOME>x_165</OUTCOME>
    <PROPERTY>position = (600, -375)</PROPERTY>
  </VARIABLE>

  <VARIABLE TYPE="nature">
    <NAME>nprot</NAME>
    <OUTCOME>x_40</OUTCOME>
    <OUTCOME>x40_60</OUTCOME>
    <OUTCOME>x60_80</OUTCOME>
    <OUTCOME>x80_100</OUTCOME>
    <OUTCOME>x100_120</OUTCOME>
    <OUTCOME>x120_140</OUTCOME>
    <OUTCOME>x140_160</OUTCOME>
    <OUTCOME>x_160</OUTCOME>
    <PROPERTY>position = (750, -375)</PROPERTY>
  </VARIABLE>

  <VARIABLE TYPE="nature">
    <NAME>potnmin</NAME>
    <OUTCOME>x0_15</OUTCOME>
    <OUTCOME>x15_30</OUTCOME>
    <OUTCOME>x30_45</OUTCOME>
    <OUTCOME>x45_60</OUTCOME>
    <OUTCOME>x60_75</OUTCOME>
    <OUTCOME>x75_90</OUTCOME>
    <OUTCOME>x90_105</OUTCOME>
    <OUTCOME>x_105</OUTCOME>
    <PROPERTY>position = (150, -225)</PROPERTY>
  </VARIABLE>

  <VARIABLE TYPE="nature">
    <NAME>aks_m2</NAME>
    <OUTCOME>x_350</OUTCOME>
    <OUTCOME>x350_450</OUTCOME>
    <OUTCOME>x450_550</OUTCOME>
    <OUTCOME>x550_650</OUTCOME>
    <OUTCOME>x650_750</OUTCOME>
    <OUTCOME>x750_950</OUTCOME>
    <OUTCOME>x950_1150</OUTCOME>
    <OUTCOME>x_1150</OUTCOME>
    <PROPERTY>position = (150, -450)</PROPERTY>
  </VARIABLE>

  <VARIABLE TYPE="nature">
    <NAME>ngodnn</NAME>
    <OUTCOME>x_45</OUTCOME>
    <OUTCOME>x45_60</OUTCOME>
    <OUTCOME>x60_75</OUTCOME>
    <OUTCOME>x75_90</OUTCOME>
    <OUTCOME>x90_105</OUTCOME>
    <OUTCOME>x105_120</OUTCOME>
    <OUTCOME>x120_135</OUTCOME>
    <OUTCOME>x135_150</OUTCOME>
    <OUTCOME>x150_165</OUTCOME>
    <OUTCOME>x_165</OUTCOME>
    <PROPERTY>position = (150, -375)</PROPERTY>
  </VARIABLE>

  <VARIABLE TYPE="nature">
    <NAME>komm</NAME>
    <OUTCOME>state0</OUTCOME>
    <OUTCOME>state1</OUTCOME>
    <OUTCOME>state2</OUTCOME>
    <OUTCOME>state3</OUTCOME>
    <OUTCOME>state4</OUTCOME>
    <PROPERTY>position = (300, 0)</PROPERTY>
  </VARIABLE>

  <VARIABLE TYPE="nature">
    <NAME>s2528</NAME>
    <OUTCOME>x0_5</OUTCOME>
    <OUTCOME>x5_10</OUTCOME>
    <OUTCOME>x10_15</OUTCOME>
    <OUTCOME>x15_20</OUTCOME>
    <OUTCOME>x20_25</OUTCOME>
    <OUTCOME>x25_30</OUTCOME>
    <OUTCOME>x30_35</OUTCOME>
    <OUTCOME>x35_40</OUTCOME>
    <OUTCOME>x40_45</OUTCOME>
    <OUTCOME>x45_50</OUTCOME>
    <OUTCOME>x50_55</OUTCOME>
    <OUTCOME>x55_60</OUTCOME>
    <OUTCOME>x60_65</OUTCOME>
    <OUTCOME>x65_70</OUTCOME>
    <OUTCOME>x70_75</OUTCOME>
    <OUTCOME>x75_80</OUTCOME>
    <OUTCOME>x80_85</OUTCOME>
    <OUTCOME>x85_90</OUTCOME>
    <OUTCOME>x90_95</OUTCOME>
    <OUTCOME>x95_100</OUTCOME>
    <PROPERTY>position = (150, -525)</PROPERTY>
  </VARIABLE>

  <VARIABLE TYPE="nature">
    <NAME>partigerm</NAME>
    <OUTCOME>x_80</OUTCOME>
    <OUTCOME>x80_85</OUTCOME>
    <OUTCOME>x85_90</OUTCOME>
    <OUTCOME>x90_93</OUTCOME>
    <OUTCOME>x93_95</OUTCOME>
    <OUTCOME>x95_97</OUTCOME>
    <OUTCOME>x97_98</OUTCOME>
    <OUTCOME>x98_99</OUTCOME>
    <OUTCOME>x99_100</OUTCOME>
    <PROPERTY>position = (750, 0)</PROPERTY>
  </VARIABLE>

  <VARIABLE TYPE="nature">
    <NAME>nopt</NAME>
    <OUTCOME>x_120</OUTCOME>
    <OUTCOME>x120_135</OUTCOME>
    <OUTCOME>x135_150</OUTCOME>
    <OUTCOME>x150_165</OUTCOME>
    <OUTCOME>x165_180</OUTCOME>
    <OUTCOME>x_180</OUTCOME>
    <PROPERTY>position = (150, -300)</PROPERTY>
  </VARIABLE>

  <VARIABLE TYPE="nature">
    <NAME>frspdag</NAME>
    <OUTCOME>x_15</OUTCOME>
    <OUTCOME>x15_17</OUTCOME>
    <OUTCOME>x17_19</OUTCOME>
    <OUTCOME>x19_21</OUTCOME>
    <OUTCOME>x21_23</OUTCOME>
    <OUTCOME>x23_25</OUTCOME>
    <OUTCOME>x25_27</OUTCOME>
    <OUTCOME>x_27</OUTCOME>
    <PROPERTY>position = (750, -150)</PROPERTY>
  </VARIABLE>

  <VARIABLE TYPE="nature">
    <NAME>mod_nmin</NAME>
    <OUTCOME>x0_15</OUTCOME>
    <OUTCOME>x15_30</OUTCOME>
    <OUTCOME>x30_45</OUTCOME>
    <OUTCOME>x45_60</OUTCOME>
    <OUTCOME>x60_75</OUTCOME>
    <OUTCOME>x_75</OUTCOME>
    <PROPERTY>position = (300, -300)</PROPERTY>
  </VARIABLE>

  <VARIABLE TYPE="nature">
    <NAME>srtsize</NAME>
    <OUTCOME>x__1</OUTCOME>
    <OUTCOME>x_1</OUTCOME>
    <OUTCOME>x0</OUTCOME>
    <OUTCOME>x1</OUTCOME>
    <OUTCOME>x2</OUTCOME>
    <OUTCOME>x3</OUTCOME>
    <OUTCOME>x_3</OUTCOME>
    <PROPERTY>position = (0, -150)</PROPERTY>
  </VARIABLE>

  <VARIABLE TYPE="nature">
    <NAME>srtprot</NAME>
    <OUTCOME>x1</OUTCOME>
    <OUTCOME>x2</OUTCOME>
    <OUTCOME>x3</OUTCOME>
    <OUTCOME>x4</OUTCOME>
    <OUTCOME>x5</OUTCOME>
    <OUTCOME>x6</OUTCOME>
    <OUTCOME>x7</OUTCOME>
    <OUTCOME>x8</OUTCOME>
    <OUTCOME>x9</OUTCOME>
    <PROPERTY>position = (750, -75)</PROPERTY>
  </VARIABLE>

  <VARIABLE TYPE="nature">
    <NAME>forfrugt</NAME>
    <OUTCOME>Cereals</OUTCOME>
    <OUTCOME>Cer_rotation</OUTCOME>
    <OUTCOME>Beets</OUTCOME>
    <OUTCOME>Clovergrass</OUTCOME>
    <OUTCOME>Other</OUTCOME>
    <PROPERTY>position = (300, -75)</PROPERTY>
  </VARIABLE>

  <VARIABLE TYPE="nature">
    <NAME>protein</NAME>
    <OUTCOME>x_9</OUTCOME>
    <OUTCOME>x9_0_9_5</OUTCOME>
    <OUTCOME>x9_5_10_0</OUTCOME>
    <OUTCOME>x10_0_10_5</OUTCOME>
    <OUTCOME>x10_5_11_0</OUTCOME>
    <OUTCOME>x11_0_11_5</OUTCOME>
    <OUTCOME>x11_5_12_0</OUTCOME>
    <OUTCOME>x_12_0</OUTCOME>
    <PROPERTY>position = (600, -525)</PROPERTY>
  </VARIABLE>

  <VARIABLE TYPE="nature">
    <NAME>dg25</NAME>
    <OUTCOME>x_22_5</OUTCOME>
    <OUTCOME>x11_5_27_5</OUTCOME>
    <OUTCOME>x27_5_32_5</OUTCOME>
    <OUTCOME>x32_5_37_5</OUTCOME>
    <OUTCOME>x37_5_47_5</OUTCOME>
    <OUTCOME>x47_5_57_5</OUTCOME>
    <OUTCOME>x_57_5</OUTCOME>
    <PROPERTY>position = (600, -150)</PROPERTY>
  </VARIABLE>

  <VARIABLE TYPE="nature">
    <NAME>dgv5980</NAME>
    <OUTCOME>x0_5</OUTCOME>
    <OUTCOME>x5_10</OUTCOME>
    <OUTCOME>x10_15</OUTCOME>
    <OUTCOME>x15_25</OUTCOME>
    <OUTCOME>x25_35</OUTCOME>
    <OUTCOME>x_35</OUTCOME>
    <PROPERTY>position = (750, -225)</PROPERTY>
  </VARIABLE>

  <VARIABLE TYPE="nature">
    <NAME>pesticid</NAME>
    <OUTCOME>x_</OUTCOME>
    <OUTCOME>x_2</OUTCOME>
    <PROPERTY>position = (450, -75)</PROPERTY>
  </VARIABLE>

  <VARIABLE TYPE="nature">
    <NAME>udb</NAME>
    <OUTCOME>x_30</OUTCOME>
    <OUTCOME>x30_40</OUTCOME>
    <OUTCOME>x40_50</OUTCOME>
    <OUTCOME>x50_55</OUTCOME>
    <OUTCOME>x55_60</OUTCOME>
    <OUTCOME>x60_65</OUTCOME>
    <OUTCOME>x65_70</OUTCOME>
    <OUTCOME>x70_80</OUTCOME>
    <OUTCOME>x_80</OUTCOME>
    <PROPERTY>position = (0, -525)</PROPERTY>
  </VARIABLE>

  <VARIABLE TYPE="nature">
    <NAME>antplnt</NAME>
    <OUTCOME>x_175</OUTCOME>
    <OUTCOME>x175_225</OUTCOME>
    <OUTCOME>x225_275</OUTCOME>
    <OUTCOME>x275_325</OUTCOME>
    <OUTCOME>x325_375</OUTCOME>
    <OUTCOME>x375_425</OUTCOME>
    <OUTCOME>x_425</OUTCOME>
    <PROPERTY>position = (300, -375)</PROPERTY>
  </VARIABLE>

  <VARIABLE TYPE="nature">
    <NAME>tkv</NAME>
    <OUTCOME>x_35</OUTCOME>
    <OUTCOME>x35_40</OUTCOME>
    <OUTCOME>x40_42_5</OUTCOME>
    <OUTCOME>x42_5_45</OUTCOME>
    <OUTCOME>x45_47_5</OUTCOME>
    <OUTCOME>x47_5_50</OUTCOME>
    <OUTCOME>x50_55</OUTCOME>
    <OUTCOME>x_55</OUTCOME>
    <PROPERTY>position = (600, -450)</PROPERTY>
  </VARIABLE>

  <VARIABLE TYPE="nature">
    <NAME>saamng</NAME>
    <OUTCOME>x50_70</OUTCOME>
    <OUTCOME>x70_90</OUTCOME>
    <OUTCOME>x90_110</OUTCOME>
    <OUTCOME>x110_130</OUTCOME>
    <OUTCOME>x130_150</OUTCOME>
    <OUTCOME>x150_170</OUTCOME>
    <OUTCOME>x170_190</OUTCOME>
    <OUTCOME>x190_210</OUTCOME>
    <OUTCOME>x210_230</OUTCOME>
    <OUTCOME>x230_250</OUTCOME>
    <PROPERTY>position = (150, -75)</PROPERTY>
  </VARIABLE>

  <VARIABLE TYPE="nature">
    <NAME>aks_vgt</NAME>
    <OUTCOME>x_550</OUTCOME>
    <OUTCOME>x550_600</OUTCOME>
    <OUTCOME>x600_650</OUTCOME>
    <OUTCOME>x650_700</OUTCOME>
    <OUTCOME>x700_750</OUTCOME>
    <OUTCOME>x750_850</OUTCOME>
    <OUTCOME>x850_950</OUTCOME>
    <OUTCOME>x950_1050</OUTCOME>
    <OUTCOME>x_1050</OUTCOME>
    <PROPERTY>position = (450, -450)</PROPERTY>
  </VARIABLE>

  <VARIABLE TYPE="nature">
    <NAME>spndx</NAME>
    <OUTCOME>x_7</OUTCOME>
    <OUTCOME>x7_8</OUTCOME>
    <OUTCOME>x8_9</OUTCOME>
    <OUTCOME>x9_10</OUTCOME>
    <PROPERTY>position = (750, -525)</PROPERTY>
  </VARIABLE>

  <VARIABLE TYPE="nature">
    <NAME>ksort</NAME>
    <OUTCOME>x_85</OUTCOME>
    <OUTCOME>x85_90</OUTCOME>
    <OUTCOME>x90_95</OUTCOME>
    <OUTCOME>x95_98</OUTCOME>
    <OUTCOME>x_98</OUTCOME>
    <PROPERTY>position = (450, -525)</PROPERTY>
  </VARIABLE>

  <VARIABLE TYPE="nature">
    <NAME>tkvs</NAME>
    <OUTCOME>x30_35</OUTCOME>
    <OUTCOME>x35_40</OUTCOME>
    <OUTCOME>x40_42</OUTCOME>
    <OUTCOME>x42_44</OUTCOME>
    <OUTCOME>x44_46</OUTCOME>
    <OUTCOME>x46_48</OUTCOME>
    <OUTCOME>x48_50</OUTCOME>
    <OUTCOME>x50_55</OUTCOME>
    <OUTCOME>x55_60</OUTCOME>
    <PROPERTY>position = (150, 0)</PROPERTY>
  </VARIABLE>

  <VARIABLE TYPE="nature">
    <NAME>saatid</NAME>
    <OUTCOME>x_26_3</OUTCOME>
    <OUTCOME>x26_3_10_4</OUTCOME>
    <OUTCOME>x11_4_20_4</OUTCOME>
    <OUTCOME>x21_4_26_4</OUTCOME>
    <OUTCOME>x_26_4</OUTCOME>
    <PROPERTY>position = (0, -75)</PROPERTY>
  </VARIABLE>

  <VARIABLE TYPE="nature">
    <NAME>jordn</NAME>
    <OUTCOME>x0_15</OUTCOME>
    <OUTCOME>x15_30</OUTCOME>
    <OUTCOME>x30_45</OUTCOME>
    <OUTCOME>x45_60</OUTCOME>
    <OUTCOME>x60_75</OUTCOME>
    <OUTCOME>x75_90</OUTCOME>
    <OUTCOME>x90_105</OUTCOME>
    <OUTCOME>x105_120</OUTCOME>
    <OUTCOME>x_120</OUTCOME>
    <PROPERTY>position = (450, -300)</PROPERTY>
  </VARIABLE>

  <VARIABLE TYPE="nature">
    <NAME>exptgens</NAME>
    <OUTCOME>x_30</OUTCOME>
    <OUTCOME>x30_40</OUTCOME>
    <OUTCOME>x40_50</OUTCOME>
    <OUTCOME>x50_60</OUTCOME>
    <OUTCOME>x60_70</OUTCOME>
    <OUTCOME>x_70</OUTCOME>
    <PROPERTY>position = (300, -225)</PROPERTY>
  </VARIABLE>

  <VARIABLE TYPE="nature">
    <NAME>ngodnt</NAME>
    <OUTCOME>x_45</OUTCOME>
    <OUTCOME>x45_60</OUTCOME>
    <OUTCOME>x60_75</OUTCOME>
    <OUTCOME>x75_90</OUTCOME>
    <OUTCOME>x90_105</OUTCOME>
    <OUTCOME>x105_120</OUTCOME>
    <OUTCOME>x120_135</OUTCOME>
    <OUTCOME>x135_150</OUTCOME>
    <OUTCOME>x150_165</OUTCOME>
    <OUTCOME>x_165</OUTCOME>
    <PROPERTY>position = (0, -375)</PROPERTY>
  </VARIABLE>

  <VARIABLE TYPE="nature">
    <NAME>dgv1059</NAME>
    <OUTCOME>x_25</OUTCOME>
    <OUTCOME>x25_40</OUTCOME>
    <OUTCOME>x41_50</OUTCOME>
    <OUTCOME>x51_60</OUTCOME>
    <OUTCOME>x61_70</OUTCOME>
    <OUTCOME>x_70</OUTCOME>
    <PROPERTY>position = (600, -225)</PROPERTY>
  </VARIABLE>

  <VARIABLE TYPE="nature">
    <NAME>rokap</NAME>
    <OUTCOME>x37_5_62_5</OUTCOME>
    <OUTCOME>x62_5_87_5</OUTCOME>
    <OUTCOME>x87_5_112_5</OUTCOME>
    <OUTCOME>x112_5_137_5</OUTCOME>
    <OUTCOME>x137_5_162_5</OUTCOME>
    <OUTCOME>x162_5_187_5</OUTCOME>
    <OUTCOME>x187_5_212_5</OUTCOME>
    <PROPERTY>position = (450, -150)</PROPERTY>
  </VARIABLE>

  <VARIABLE TYPE="nature">
    <NAME>ngodn</NAME>
    <OUTCOME>x_45</OUTCOME>
    <OUTCOME>x45_60</OUTCOME>
    <OUTCOME>x60_75</OUTCOME>
    <OUTCOME>x75_90</OUTCOME>
    <OUTCOME>x90_105</OUTCOME>
    <OUTCOME>x105_120</OUTCOME>
    <OUTCOME>x120_135</OUTCOME>
    <OUTCOME>x135_150</OUTCOME>
    <OUTCOME>x150_165</OUTCOME>
    <OUTCOME>x_165</OUTCOME>
    <PROPERTY>position = (450, -375)</PROPERTY>
  </VARIABLE>

  <VARIABLE TYPE="nature">
    <NAME>nmin</NAME>
    <OUTCOME>x0_15</OUTCOME>
    <OUTCOME>x15_30</OUTCOME>
    <OUTCOME>x30_45</OUTCOME>
    <OUTCOME>x45_60</OUTCOME>
    <OUTCOME>x60_75</OUTCOME>
    <OUTCOME>x_75</OUTCOME>
    <PROPERTY>position = (450, -225)</PROPERTY>
  </VARIABLE>

  <VARIABLE TYPE="nature">
    <NAME>aar_mod</NAME>
    <OUTCOME>x_25</OUTCOME>
    <OUTCOME>x_20</OUTCOME>
    <OUTCOME>x_15</OUTCOME>
    <OUTCOME>x_10</OUTCOME>
    <OUTCOME>x_5</OUTCOME>
    <OUTCOME>x0</OUTCOME>
    <OUTCOME>x5</OUTCOME>
    <OUTCOME>x10</OUTCOME>
    <OUTCOME>x15</OUTCOME>
    <OUTCOME>x20</OUTCOME>
    <OUTCOME>x25</OUTCOME>
    <PROPERTY>position = (300, -150)</PROPERTY>
  </VARIABLE>

  <VARIABLE TYPE="nature">
    <NAME>sort</NAME>
    <OUTCOME>Abelone</OUTCOME>
    <OUTCOME>Alexis</OUTCOME>
    <OUTCOME>Alis</OUTCOME>
    <OUTCOME>Amber</OUTCOME>
    <OUTCOME>Ariel</OUTCOME>
    <OUTCOME>Baracuda</OUTCOME>
    <OUTCOME>Baronesse</OUTCOME>
    <OUTCOME>Bartok</OUTCOME>
    <OUTCOME>Blenheim</OUTCOME>
    <OUTCOME>Brewster</OUTCOME>
    <OUTCOME>Caminant</OUTCOME>
    <OUTCOME>Canut</OUTCOME>
    <OUTCOME>Caruso</OUTCOME>
    <OUTCOME>Chariot</OUTCOME>
    <OUTCOME>Collie</OUTCOME>
    <OUTCOME>Cooper</OUTCOME>
    <OUTCOME>Cork</OUTCOME>
    <OUTCOME>Delibes</OUTCOME>
    <OUTCOME>Derkado</OUTCOME>
    <OUTCOME>Digger</OUTCOME>
    <OUTCOME>Etna</OUTCOME>
    <OUTCOME>Evelyn</OUTCOME>
    <OUTCOME>Give</OUTCOME>
    <OUTCOME>Goldie</OUTCOME>
    <OUTCOME>G_363ta</OUTCOME>
    <OUTCOME>Heron</OUTCOME>
    <OUTCOME>Jarek</OUTCOME>
    <OUTCOME>Jill</OUTCOME>
    <OUTCOME>Korinna</OUTCOME>
    <OUTCOME>Krona</OUTCOME>
    <OUTCOME>Lamba</OUTCOME>
    <OUTCOME>Lenka</OUTCOME>
    <OUTCOME>Limbo</OUTCOME>
    <OUTCOME>Loma</OUTCOME>
    <OUTCOME>Lysimax</OUTCOME>
    <OUTCOME>Maresi</OUTCOME>
    <OUTCOME>Marielle</OUTCOME>
    <OUTCOME>Marina</OUTCOME>
    <OUTCOME>Maud</OUTCOME>
    <OUTCOME>Meltan</OUTCOME>
    <OUTCOME>Mentor</OUTCOME>
    <OUTCOME>Mie</OUTCOME>
    <OUTCOME>Miralix</OUTCOME>
    <OUTCOME>Nevada</OUTCOME>
    <OUTCOME>Optic</OUTCOME>
    <OUTCOME>Peel</OUTCOME>
    <OUTCOME>Polygena</OUTCOME>
    <OUTCOME>Portia</OUTCOME>
    <OUTCOME>Princesse</OUTCOME>
    <OUTCOME>Prisma</OUTCOME>
    <OUTCOME>Ragtime</OUTCOME>
    <OUTCOME>Reggae</OUTCOME>
    <OUTCOME>Rima</OUTCOME>
    <OUTCOME>Saxo</OUTCOME>
    <OUTCOME>Segu</OUTCOME>
    <OUTCOME>Sehila</OUTCOME>
    <OUTCOME>Selim</OUTCOME>
    <OUTCOME>Semal</OUTCOME>
    <OUTCOME>Senor</OUTCOME>
    <OUTCOME>Shamu</OUTCOME>
    <OUTCOME>Teal</OUTCOME>
    <OUTCOME>Texane</OUTCOME>
    <OUTCOME>Tofta</OUTCOME>
    <OUTCOME>Trebon</OUTCOME>
    <OUTCOME>Vintage</OUTCOME>
    <OUTCOME>x_321rja</OUTCOME>
    <OUTCOME>andre</OUTCOME>
    <PROPERTY>position = (0, 0)</PROPERTY>
  </VARIABLE>

  <VARIABLE TYPE="nature">
    <NAME>jordinf</NAME>
    <OUTCOME>x__80</OUTCOME>
    <OUTCOME>x_80__85</OUTCOME>
    <OUTCOME>x_94__90</OUTCOME>
    <OUTCOME>x90__93</OUTCOME>
    <OUTCOME>x93__95</OUTCOME>
    <OUTCOME>x_95__97</OUTCOME>
    <OUTCOME>x_97__98</OUTCOME>
    <OUTCOME>x_98__99</OUTCOME>
    <OUTCOME>x_99_1_00</OUTCOME>
    <PROPERTY>position = (0, -300)</PROPERTY>
  </VARIABLE>

  <VARIABLE TYPE="nature">
    <NAME>slt22</NAME>
    <OUTCOME>x0_1</OUTCOME>
    <OUTCOME>x1_2</OUTCOME>
    <OUTCOME>x2_3</OUTCOME>
    <OUTCOME>x3_5</OUTCOME>
    <PROPERTY>position = (750, -450)</PROPERTY>
  </VARIABLE>

  <VARIABLE TYPE="nature">
    <NAME>sorttkv</NAME>
    <OUTCOME>x1</OUTCOME>
    <OUTCOME>x2</OUTCOME>
    <OUTCOME>x3</OUTCOME>
    <OUTCOME>x4</OUTCOME>
    <OUTCOME>x5</OUTCOME>
    <OUTCOME>x6</OUTCOME>
    <OUTCOME>x7</OUTCOME>
    <OUTCOME>x8</OUTCOME>
    <OUTCOME>x9</OUTCOME>
    <PROPERTY>position = (600, -75)</PROPERTY>
  </VARIABLE>

  <VARIABLE TYPE="nature">
    <NAME>bgbyg</NAME>
    <OUTCOME>x_3_0</OUTCOME>
    <OUTCOME>x3_0_3_5</OUTCOME>
    <OUTCOME>x3_5_4_0</OUTCOME>
    <OUTCOME>x4_0_4_5</OUTCOME>
    <OUTCOME>x4_5_5_0</OUTCOME>
    <OUTCOME>x_5_0</OUTCOME>
    <OBSERVED>4</OBSERVED>
    <PROPERTY>position = (600, -300)</PROPERTY>
  </VARIABLE>

  <VARIABLE TYPE="nature">
    <NAME>keraks</NAME>
    <OUTCOME>x_13</OUTCOME>
    <OUTCOME>x13_15</OUTCOME>
    <OUTCOME>x15_17</OUTCOME>
    <OUTCOME>x17_19</OUTCOME>
    <OUTCOME>x19_21</OUTCOME>
    <OUTCOME>x21_23</OUTCOME>
    <OUTCOME>x_23</OUTCOME>
    <PROPERTY>position = (300, -450)</PROPERTY>
  </VARIABLE>

  <VARIABLE TYPE="nature">
    <NAME>nplac</NAME>
    <OUTCOME>Top_dressed</OUTCOME>
    <OUTCOME>worked_in_solil</OUTCOME>
    <OUTCOME>Placed</OUTCOME>
    <PROPERTY>position = (450, 0)</PROPERTY>
  </VARIABLE>

  <VARIABLE TYPE="nature">
    <NAME>jordtype</NAME>
    <OUTCOME>Jb_1_</OUTCOME>
    <OUTCOME>JB_2</OUTCOME>
    <OUTCOME>JB_3</OUTCOME>
    <OUTCOME>JB_4</OUTCOME>
    <OUTCOME>JB_5</OUTCOME>
    <OUTCOME>JB_6</OUTCOME>
    <OUTCOME>Jb_7</OUTCOME>
    <OUTCOME>JB_8</OUTCOME>
    <OUTCOME>JB_9</OUTCOME>
    <PROPERTY>position = (600, 0)</PROPERTY>
  </VARIABLE>

  <VARIABLE TYPE="nature">
    <NAME>markgrm</NAME>
    <OUTCOME>x_75</OUTCOME>
    <OUTCOME>x75_80</OUTCOME>
    <OUTCOME>x80_85</OUTCOME>
    <OUTCOME>x85_90</OUTCOME>
    <OUTCOME>x90_93</OUTCOME>
    <OUTCOME>x94_95</OUTCOME>
    <OUTCOME>x95_97</OUTCOME>
    <OUTCOME>x97_98</OUTCOME>
    <OUTCOME>x98__99</OUTCOME>
    <OUTCOME>x99_100</OUTCOME>
    <PROPERTY>position = (750, -300)</PROPERTY>
  </VARIABLE>

  <DEFINITION>
    <FOR>ntilg</FOR>
    <GIVEN>ngtilg</GIVEN>
    <GIVEN>jordn</GIVEN>
    <TABLE>0.9991008100000002 9.991000000000002E-5 9.991000000000002E-5 9.991000000000002E-5 9.991000000000002E-5 9.991000000000002E-5 9.991000000000002E-5 9.991000000000002E-5 9.991000000000002E-5 9.991000000000002E-5 0.9991008100000002 9.991000000000002E-5 9.991000000000002E-5 9.991000000000002E-5 9.991000000000002E-5 9.991000000000002E-5 9.991000000000002E-5 9.991000000000002E-5 9.991000000000002E-5 9.991000000000002E-5 0.9991008100000002 9.991000000000002E-5 9.991000000000002E-5 9.991000000000002E-5 9.991000000000002E-5 9.991000000000002E-5 9.991000000000002E-5 9.991000000000002E-5 9.991000000000002E-5 9.991000000000002E-5 9.991000000000002E-5 0.9991008100000002 9.991000000000002E-5 9.991000000000002E-5 9.991000000000002E-5 9.991000000000002E-5 9.991000000000002E-5 9.991000000000002E-5 9.991000000000002E-5 9.991000000000002E-5 9.991000000000002E-5 9.991000000000002E-5 0.9991008100000002 9.991000000000002E-5 9.991000000000002E-5 9.991000000000002E-5 9.991000000000002E-5 9.991000000000002E-5 9.991000000000002E-5 9.991000000000002E-5 9.991000000000001E-5 9.991000000000001E-5 9.991000000000001E-5 0.9991008100000001 9.991000000000001E-5 9.991000000000001E-5 9.991000000000001E-5 9.991000000000001E-5 9.991000000000001E-5 9.991000000000001E-5 9.991000000000001E-5 9.991000000000001E-5 9.991000000000001E-5 9.991000000000001E-5 0.9991008100000001 9.991000000000001E-5 9.991000000000001E-5 9.991000000000001E-5 9.991000000000001E-5 9.991000000000001E-5 9.991000000000001E-5 9.991000000000001E-5 9.991000000000001E-5 9.991000000000001E-5 9.991000000000001E-5 0.9991008100000001 9.991000000000001E-5 9.991000000000001E-5 9.991000000000001E-5 9.991000000000001E-5 9.992E-5 9.992E-5 9.992E-5 9.992E-5 9.992E-5 9.992E-5 0.49960032 0.49960032 9.992E-5 9.992E-5 0.9991008100000002 9.991000000000002E-5 9.991000000000002E-5 9.991000000000002E-5 9.991000000000002E-5 9.991000000000002E-5 9.991000000000002E-5 9.991000000000002E-5 9.991000000000002E-5 9.991000000000002E-5 0.4996003199999999 0.4996003199999999 9.991999999999998E-5 9.991999999999998E-5 9.991999999999998E-5 9.991999999999998E-5 9.991999999999998E-5 9.991999999999998E-5 9.991999999999998E-5 9.991999999999998E-5 9.991999999999998E-5 0.4996003199999999 0.4996003199999999 9.991999999999998E-5 9.991999999999998E-5 9.991999999999998E-5 9.991999999999998E-5 9.991999999999998E-5 9.991999999999998E-5 9.991999999999998E-5 9.991999999999998E-5 9.991999999999998E-5 0.4996003199999999 0.4996003199999999 9.991999999999998E-5 9.991999999999998E-5 9.991999999999998E-5 9.991999999999998E-5 9.991999999999998E-5 9.991999999999998E-5 9.992E-5 9.992E-5 9.992E-5 0.49960032 0.49960032 9.992E-5 9.992E-5 9.992E-5 9.992E-5 9.992E-5 9.992E-5 9.992E-5 9.992E-5 9.992E-5 0.49960032 0.49960032 9.992E-5 9.992E-5 9.992E-5 9.992E-5 9.992E-5 9.992E-5 9.992E-5 9.992E-5 9.992E-5 0.49960032 0.49960032 9.992E-5 9.992E-5 9.992E-5 9.992E-5 9.992E-5 9.992E-5 9.992E-5 9.992E-5 9.992E-5 0.49960032 0.49960032 9.992E-5 9.992E-5 9.991000000000001E-5 9.991000000000001E-5 9.991000000000001E-5 9.991000000000001E-5 9.991000000000001E-5 9.991000000000001E-5 9.991000000000001E-5 9.991000000000001E-5 0.9991008100000001 9.991000000000001E-5 0.4996003199999999 0.4996003199999999 9.991999999999998E-5 9.991999999999998E-5 9.991999999999998E-5 9.991999999999998E-5 9.991999999999998E-5 9.991999999999998E-5 9.991999999999998E-5 9.991999999999998E-5 9.991999999999998E-5 0.4996003199999999 0.4996003199999999 9.991999999999998E-5 9.991999999999998E-5 9.991999999999998E-5 9.991999999999998E-5 9.991999999999998E-5 9.991999999999998E-5 9.991999999999998E-5 9.991999999999998E-5 9.991999999999998E-5 0.4996003199999999 0.4996003199999999 9.991999999999998E-5 9.991999999999998E-5 9.991999999999998E-5 9.991999999999998E-5 9.991999999999998E-5 9.991999999999998E-5 9.992E-5 9.992E-5 9.992E-5 0.49960032 0.49960032 9.992E-5 9.992E-5 9.992E-5 9.992E-5 9.992E-5 9.992E-5 9.992E-5 9.992E-5 9.992E-5 0.49960032 0.49960032 9.992E-5 9.992E-5 9.992E-5 9.992E-5 9.992E-5 9.992E-5 9.992E-5 9.992E-5 9.992E-5 0.49960032 0.49960032 9.992E-5 9.992E-5 9.992E-5 9.992E-5 9.992E-5 9.992E-5 9.992E-5 9.992E-5 9.992E-5 0.49960032 0.49960032 9.992E-5 9.992E-5 9.992E-5 9.992E-5 9.992E-5 9.992E-5 9.992E-5 9.992E-5 9.992E-5 0.49960032 0.49960032 9.992E-5 9.991E-5 9.991E-5 9.991E-5 9.991E-5 9.991E-5 9.991E-5 9.991E-5 9.991E-5 9.991E-5 0.99910081 9.991999999999998E-5 0.4996003199999999 0.4996003199999999 9.991999999999998E-5 9.991999999999998E-5 9.991999999999998E-5 9.991999999999998E-5 9.991999999999998E-5 9.991999999999998E-5 9.991999999999998E-5 9.991999999999998E-5 9.991999999999998E-5 0.4996003199999999 0.4996003199999999 9.991999999999998E-5 9.991999999999998E-5 9.991999999999998E-5 9.991999999999998E-5 9.991999999999998E-5 9.991999999999998E-5 9.992E-5 9.992E-5 9.992E-5 0.49960032 0.49960032 9.992E-5 9.992E-5 9.992E-5 9.992E-5 9.992E-5 9.992E-5 9.992E-5 9.992E-5 9.992E-5 0.49960032 0.49960032 9.992E-5 9.992E-5 9.992E-5 9.992E-5 9.992E-5 9.992E-5 9.992E-5 9.992E-5 9.992E-5 0.49960032 0.49960032 9.992E-5 9.992E-5 9.992E-5 9.992E-5 9.992E-5 9.992E-5 9.992E-5 9.992E-5 9.992E-5 0.49960032 0.49960032 9.992E-5 9.992E-5 9.992E-5 9.992E-5 9.992E-5 9.992E-5 9.992E-5 9.992E-5 9.992E-5 0.49960032 0.49960032 9.992E-5 9.992E-5 9.992E-5 9.992E-5 9.992E-5 9.992E-5 9.992E-5 9.992E-5 9.992E-5 0.49960032 0.49960032 9.991E-5 9.991E-5 9.991E-5 9.991E-5 9.991E-5 9.991E-5 9.991E-5 9.991E-5 9.991E-5 0.99910081 9.991999999999998E-5 9.991999999999998E-5 0.4996003199999999 0.4996003199999999 9.991999999999998E-5 9.991999999999998E-5 9.991999999999998E-5 9.991999999999998E-5 9.991999999999998E-5 9.991999999999998E-5 9.992E-5 9.992E-5 9.992E-5 0.49960032 0.49960032 9.992E-5 9.992E-5 9.992E-5 9.992E-5 9.992E-5 9.992E-5 9.992E-5 9.992E-5 9.992E-5 0.49960032 0.49960032 9.992E-5 9.992E-5 9.992E-5 9.992E-5 9.992E-5 9.992E-5 9.992E-5 9.992E-5 9.992E-5 0.49960032 0.49960032 9.992E-5 9.992E-5 9.992E-5 9.992E-5 9.992E-5 9.992E-5 9.992E-5 9.992E-5 9.992E-5 0.49960032 0.49960032 9.992E-5 9.992E-5 9.992E-5 9.992E-5 9.992E-5 9.992E-5 9.992E-5 9.992E-5 9.992E-5 0.49960032 0.49960032 9.992E-5 9.992E-5 9.992E-5 9.992E-5 9.992E-5 9.992E-5 9.992E-5 9.992E-5 9.992E-5 0.49960032 0.49960032 9.991E-5 9.991E-5 9.991E-5 9.991E-5 9.991E-5 9.991E-5 9.991E-5 9.991E-5 9.991E-5 0.99910081 9.991E-5 9.991E-5 9.991E-5 9.991E-5 9.991E-5 9.991E-5 9.991E-5 9.991E-5 9.991E-5 0.99910081 9.992E-5 9.992E-5 9.992E-5 0.49960032 0.49960032 9.992E-5 9.992E-5 9.992E-5 9.992E-5 9.992E-5 9.992E-5 9.992E-5 9.992E-5 9.992E-5 0.49960032 0.49960032 9.992E-5 9.992E-5 9.992E-5 9.992E-5 9.992E-5 9.992E-5 9.992E-5 9.992E-5 9.992E-5 0.49960032 0.49960032 9.992E-5 9.992E-5 9.992E-5 9.992E-5 9.992E-5 9.992E-5 9.992E-5 9.992E-5 9.992E-5 0.49960032 0.49960032 9.992E-5 9.992E-5 9.992E-5 9.992E-5 9.992E-5 9.992E-5 9.992E-5 9.992E-5 9.992E-5 0.49960032 0.49960032 9.992E-5 9.992E-5 9.992E-5 9.992E-5 9.992E-5 9.992E-5 9.992E-5 9.992E-5 9.992E-5 0.49960032 0.49960032 9.991E-5 9.991E-5 9.991E-5 9.991E-5 9.991E-5 9.991E-5 9.991E-5 9.991E-5 9.991E-5 0.99910081 9.991E-5 9.991E-5 9.991E-5 9.991E-5 9.991E-5 9.991E-5 9.991E-5 9.991E-5 9.991E-5 0.99910081 9.991E-5 9.991E-5 9.991E-5 9.991E-5 9.991E-5 9.991E-5 9.991E-5 9.991E-5 9.991E-5 0.99910081 9.992E-5 9.992E-5 9.992E-5 9.992E-5 0.49960032 0.49960032 9.992E-5 9.992E-5 9.992E-5 9.992E-5 9.992E-5 9.992E-5 9.992E-5 9.992E-5 9.992E-5 0.49960032 0.49960032 9.992E-5 9.992E-5 9.992E-5 9.992E-5 9.992E-5 9.992E-5 9.992E-5 9.992E-5 9.992E-5 0.49960032 0.49960032 9.992E-5 9.992E-5 9.992E-5 9.992E-5 9.992E-5 9.992E-5 9.992E-5 9.992E-5 9.992E-5 0.49960032 0.49960032 9.992E-5 9.992E-5 9.992E-5 9.992E-5 9.992E-5 9.992E-5 9.992E-5 9.992E-5 9.992E-5 0.49960032 0.49960032 9.991E-5 9.991E-5 9.991E-5 9.991E-5 9.991E-5 9.991E-5 9.991E-5 9.991E-5 9.991E-5 0.99910081 9.991E-5 9.991E-5 9.991E-5 9.991E-5 9.991E-5 9.991E-5 9.991E-5 9.991E-5 9.991E-5 0.99910081 9.991E-5 9.991E-5 9.991E-5 9.991E-5 9.991E-5 9.991E-5 9.991E-5 9.991E-5 9.991E-5 0.99910081 9.991E-5 9.991E-5 9.991E-5 9.991E-5 9.991E-5 9.991E-5 9.991E-5 9.991E-5 9.991E-5 0.99910081 9.992E-5 9.992E-5 9.992E-5 9.992E-5 9.992E-5 0.49960032 0.49960032 9.992E-5 9.992E-5 9.992E-5 9.992E-5 9.992E-5 9.992E-5 9.992E-5 9.992E-5 9.992E-5 0.49960032 0.49960032 9.992E-5 9.992E-5 9.992E-5 9.992E-5 9.992E-5 9.992E-5 9.992E-5 9.992E-5 9.992E-5 0.49960032 0.49960032 9.992E-5 9.992E-5 9.992E-5 9.992E-5 9.992E-5 9.992E-5 9.992E-5 9.992E-5 9.992E-5 0.49960032 0.49960032 9.991E-5 9.991E-5 9.991E-5 9.991E-5 9.991E-5 9.991E-5 9.991E-5 9.991E-5 9.991E-5 0.99910081 9.991E-5 9.991E-5 9.991E-5 9.991E-5 9.991E-5 9.991E-5 9.991E-5 9.991E-5 9.991E-5 0.99910081 9.991E-5 9.991E-5 9.991E-5 9.991E-5 9.991E-5 9.991E-5 9.991E-5 9.991E-5 9.991E-5 0.99910081 9.991E-5 9.991E-5 9.991E-5 9.991E-5 9.991E-5 9.991E-5 9.991E-5 9.991E-5 9.991E-5 0.99910081 9.991E-5 9.991E-5 9.991E-5 9.991E-5 9.991E-5 9.991E-5 9.991E-5 9.991E-5 9.991E-5 0.99910081 9.992E-5 9.992E-5 9.992E-5 9.992E-5 9.992E-5 9.992E-5 0.49960032 0.49960032 9.992E-5 9.992E-5 9.992E-5 9.992E-5 9.992E-5 9.992E-5 9.992E-5 9.992E-5 9.992E-5 0.49960032 0.49960032 9.992E-5 9.992E-5 9.992E-5 9.992E-5 9.992E-5 9.992E-5 9.992E-5 9.992E-5 9.992E-5 0.49960032 0.49960032 9.991E-5 9.991E-5 9.991E-5 9.991E-5 9.991E-5 9.991E-5 9.991E-5 9.991E-5 9.991E-5 0.99910081 9.991E-5 9.991E-5 9.991E-5 9.991E-5 9.991E-5 9.991E-5 9.991E-5 9.991E-5 9.991E-5 0.99910081 9.991E-5 9.991E-5 9.991E-5 9.991E-5 9.991E-5 9.991E-5 9.991E-5 9.991E-5 9.991E-5 0.99910081 9.991E-5 9.991E-5 9.991E-5 9.991E-5 9.991E-5 9.991E-5 9.991E-5 9.991E-5 9.991E-5 0.99910081 9.991E-5 9.991E-5 9.991E-5 9.991E-5 9.991E-5 9.991E-5 9.991E-5 9.991E-5 9.991E-5 0.99910081 9.991E-5 9.991E-5 9.991E-5 9.991E-5 9.991E-5 9.991E-5 9.991E-5 9.991E-5 9.991E-5 0.99910081 9.991000000000001E-5 9.991000000000001E-5 9.991000000000001E-5 9.991000000000001E-5 9.991000000000001E-5 9.991000000000001E-5 9.991000000000001E-5 0.9991008100000001 9.991000000000001E-5 9.991000000000001E-5 9.991000000000001E-5 9.991000000000001E-5 9.991000000000001E-5 9.991000000000001E-5 9.991000000000001E-5 9.991000000000001E-5 9.991000000000001E-5 9.991000000000001E-5 0.9991008100000001 9.991000000000001E-5 9.991E-5 9.991E-5 9.991E-5 9.991E-5 9.991E-5 9.991E-5 9.991E-5 9.991E-5 9.991E-5 0.99910081 9.991E-5 9.991E-5 9.991E-5 9.991E-5 9.991E-5 9.991E-5 9.991E-5 9.991E-5 9.991E-5 0.99910081 9.991E-5 9.991E-5 9.991E-5 9.991E-5 9.991E-5 9.991E-5 9.991E-5 9.991E-5 9.991E-5 0.99910081 9.991E-5 9.991E-5 9.991E-5 9.991E-5 9.991E-5 9.991E-5 9.991E-5 9.991E-5 9.991E-5 0.99910081 9.991E-5 9.991E-5 9.991E-5 9.991E-5 9.991E-5 9.991E-5 9.991E-5 9.991E-5 9.991E-5 0.99910081 9.991E-5 9.991E-5 9.991E-5 9.991E-5 9.991E-5 9.991E-5 9.991E-5 9.991E-5 9.991E-5 0.99910081 9.991E-5 9.991E-5 9.991E-5 9.991E-5 9.991E-5 9.991E-5 9.991E-5 9.991E-5 9.991E-5 0.99910081 </TABLE>
  </DEFINITION>

  <DEFINITION>
    <FOR>nedbarea</FOR>
    <GIVEN>komm</GIVEN>
    <TABLE>0.33333333333333337 0.33333333333333337 0.33333333333333337 0.33333333333333337 0.33333333333333337 0.33333333333333337 0.33333333333333337 0.33333333333333337 0.33333333333333337 0.33333333333333337 0.33333333333333337 0.33333333333333337 0.33333333333333337 0.33333333333333337 0.33333333333333337 </TABLE>
  </DEFINITION>

  <DEFINITION>
    <FOR>s2225</FOR>
    <GIVEN>keraks</GIVEN>
    <GIVEN>aks_vgt</GIVEN>
    <GIVEN>srtsize</GIVEN>
    <TABLE>0.9997000900000002 9.997000000000002E-5 9.997000000000002E-5 9.997000000000002E-5 0.9997000900000002 9.997000000000002E-5 9.997000000000002E-5 9.997000000000002E-5 0.9997000900000002 9.997000000000002E-5 9.997000000000002E-5 9.997000000000002E-5 0.9997000900000002 9.997000000000002E-5 9.997000000000002E-5 9.997000000000002E-5 0.9997000900000002 9.997000000000002E-5 9.997000000000002E-5 9.997000000000002E-5 0.9997000900000002 9.997000000000002E-5 9.997000000000002E-5 9.997000000000002E-5 0.9997000900000002 9.997000000000002E-5 9.997000000000002E-5 9.997000000000002E-5 0.9997000900000002 9.997000000000002E-5 9.997000000000002E-5 9.997000000000002E-5 0.9997000900000002 9.997000000000002E-5 9.997000000000002E-5 9.997000000000002E-5 0.9997000900000002 9.997000000000002E-5 9.997000000000002E-5 9.997000000000002E-5 0.9997000900000002 9.997000000000002E-5 9.997000000000002E-5 9.997000000000002E-5 0.9997000900000002 9.997000000000002E-5 9.997000000000002E-5 9.997000000000002E-5 0.9997000900000002 9.997000000000002E-5 9.997000000000002E-5 9.997000000000002E-5 0.9997000900000002 9.997000000000002E-5 9.997000000000002E-5 9.997000000000002E-5 0.9997000900000002 9.997000000000002E-5 9.997000000000002E-5 9.997000000000002E-5 0.9997000900000002 9.997000000000002E-5 9.997000000000002E-5 9.997000000000002E-5 0.9997000900000002 9.997000000000002E-5 9.997000000000002E-5 9.997000000000002E-5 0.9997000900000002 9.997000000000002E-5 9.997000000000002E-5 9.997000000000002E-5 0.9997000900000002 9.997000000000002E-5 9.997000000000002E-5 9.997000000000002E-5 0.9997000900000002 9.997000000000002E-5 9.997000000000002E-5 9.997000000000002E-5 0.9997000900000002 9.997000000000002E-5 9.997000000000002E-5 9.997000000000002E-5 0.9997000900000002 9.997000000000002E-5 9.997000000000002E-5 9.997000000000002E-5 0.9997000900000002 9.997000000000002E-5 9.997000000000002E-5 9.997000000000002E-5 0.9997000900000002 9.997000000000002E-5 9.997000000000002E-5 9.997000000000002E-5 0.9997000900000002 9.997000000000002E-5 9.997000000000002E-5 9.997000000000002E-5 0.9997000900000002 9.997000000000002E-5 9.997000000000002E-5 9.997000000000002E-5 0.9997000900000002 9.997000000000002E-5 9.997000000000002E-5 9.997000000000002E-5 0.9997000900000002 9.997000000000002E-5 9.997000000000002E-5 9.997000000000002E-5 0.9997000900000002 9.997000000000002E-5 9.997000000000002E-5 9.997000000000002E-5 0.9997000900000002 9.997000000000002E-5 9.997000000000002E-5 9.997000000000002E-5 0.9997000900000002 9.997000000000002E-5 9.997000000000002E-5 9.997000000000002E-5 0.9997000900000002 9.997000000000002E-5 9.997000000000002E-5 9.997000000000002E-5 0.9997000900000002 9.997000000000002E-5 9.997000000000002E-5 9.997000000000002E-5 0.9997000900000002 9.997000000000002E-5 9.997000000000002E-5 9.997000000000002E-5 0.9997000900000002 9.997000000000002E-5 9.997000000000002E-5 9.997000000000002E-5 0.9997000900000002 9.997000000000002E-5 9.997000000000002E-5 9.997000000000002E-5 0.9997000900000002 9.997000000000002E-5 9.997000000000002E-5 9.997000000000002E-5 0.9997000900000002 9.997000000000002E-5 9.997000000000002E-5 9.997000000000002E-5 0.9997000900000002 9.997000000000002E-5 9.997000000000002E-5 9.997000000000002E-5 0.9997000900000002 9.997000000000002E-5 9.997000000000002E-5 9.997000000000002E-5 0.9997000900000002 9.997000000000002E-5 9.997000000000002E-5 9.997000000000002E-5 0.9997000900000002 9.997000000000002E-5 9.997000000000002E-5 9.997000000000002E-5 0.9997000900000002 9.997000000000002E-5 9.997000000000002E-5 9.997000000000002E-5 0.9997000900000002 9.997000000000002E-5 9.997000000000002E-5 9.997000000000002E-5 0.9997000900000002 9.997000000000002E-5 9.997000000000002E-5 9.997000000000002E-5 0.9997000900000002 9.997000000000002E-5 9.997000000000002E-5 9.997000000000002E-5 0.9997000900000002 9.997000000000002E-5 9.997000000000002E-5 9.997000000000002E-5 0.9997000900000002 9.997000000000002E-5 9.997000000000002E-5 9.997000000000002E-5 0.9997000900000002 9.997000000000002E-5 9.997000000000002E-5 9.997000000000002E-5 0.9997000900000002 9.997000000000002E-5 9.997000000000002E-5 9.997000000000002E-5 0.9997000900000002 9.997000000000002E-5 9.997000000000002E-5 9.997000000000002E-5 0.9997000900000002 9.997000000000002E-5 9.997000000000002E-5 9.997000000000002E-5 0.9997000900000002 9.997000000000002E-5 9.997000000000002E-5 9.997000000000002E-5 0.9997000900000002 9.997000000000002E-5 9.997000000000002E-5 9.997000000000002E-5 0.9997000900000002 9.997000000000002E-5 9.997000000000002E-5 9.997000000000002E-5 0.9997000900000002 9.997000000000002E-5 9.997000000000002E-5 9.997000000000002E-5 0.9997000900000002 9.997000000000002E-5 9.997000000000002E-5 9.997000000000002E-5 0.9997000900000002 9.997000000000002E-5 9.997000000000002E-5 9.997000000000002E-5 0.9997000900000002 9.997000000000002E-5 9.997000000000002E-5 9.997000000000002E-5 0.9997000900000002 9.997000000000002E-5 9.997000000000002E-5 9.997000000000002E-5 0.9997000900000002 9.997000000000002E-5 9.997000000000002E-5 9.997000000000002E-5 0.9997000900000002 9.997000000000002E-5 9.997000000000002E-5 9.997000000000002E-5 0.9997000900000002 9.997000000000002E-5 9.997000000000002E-5 9.997000000000002E-5 9.997000000000002E-5 0.9997000900000002 9.997000000000002E-5 9.997000000000002E-5 9.997000000000002E-5 0.9997000900000002 9.997000000000002E-5 9.997000000000002E-5 9.997000000000002E-5 0.9997000900000002 9.997000000000002E-5 9.997000000000002E-5 9.997000000000002E-5 0.9997000900000002 9.997000000000002E-5 9.997000000000002E-5 9.997000000000002E-5 0.9997000900000002 9.997000000000002E-5 9.997000000000002E-5 9.997000000000002E-5 0.9997000900000002 9.997000000000002E-5 9.997000000000002E-5 9.997000000000002E-5 0.9997000900000002 9.997000000000002E-5 9.997000000000002E-5 9.997000000000002E-5 0.9997000900000002 9.997000000000002E-5 9.997000000000002E-5 9.997000000000002E-5 0.9997000900000002 9.997000000000002E-5 9.997000000000002E-5 9.997000000000002E-5 0.9997000900000002 9.997000000000002E-5 9.997000000000002E-5 9.997000000000002E-5 0.9997000900000002 9.997000000000002E-5 9.997000000000002E-5 9.997000000000002E-5 0.9997000900000002 9.997000000000002E-5 9.997000000000002E-5 0.9997000900000002 9.997000000000002E-5 9.997000000000002E-5 9.997000000000002E-5 0.9997000900000002 9.997000000000002E-5 9.997000000000002E-5 9.997000000000002E-5 9.997000000000002E-5 0.9997000900000002 9.997000000000002E-5 9.997000000000002E-5 1.9996E-4 0.99960008 9.998E-5 9.998E-5 0.9997000900000002 9.997000000000002E-5 9.997000000000002E-5 9.997000000000002E-5 0.9997000900000002 9.997000000000002E-5 9.997000000000002E-5 9.997000000000002E-5 0.9997000900000002 9.997000000000002E-5 9.997000000000002E-5 9.997000000000002E-5 0.9997000900000002 9.997000000000002E-5 9.997000000000002E-5 9.997000000000002E-5 0.9997000900000002 9.997000000000002E-5 9.997000000000002E-5 9.997000000000002E-5 0.9997000900000002 9.997000000000002E-5 9.997000000000002E-5 9.997000000000002E-5 0.9997000900000002 9.997000000000002E-5 9.997000000000002E-5 9.997000000000002E-5 0.9997000900000002 9.997000000000002E-5 9.997000000000002E-5 9.997000000000002E-5 0.9997000900000002 9.997000000000002E-5 9.997000000000002E-5 9.997000000000002E-5 0.9997000900000002 9.997000000000002E-5 9.997000000000002E-5 9.997000000000002E-5 0.9997000900000002 9.997000000000002E-5 9.997000000000002E-5 9.997000000000002E-5 0.9997000900000002 9.997000000000002E-5 9.997000000000002E-5 9.997000000000002E-5 0.9997000900000002 9.997000000000002E-5 9.997000000000002E-5 9.997000000000002E-5 0.9997000900000002 9.997000000000002E-5 9.997000000000002E-5 9.997000000000002E-5 0.9997000900000002 9.997000000000002E-5 9.997000000000002E-5 9.997000000000002E-5 0.9997000900000002 9.997000000000002E-5 9.997000000000002E-5 9.997000000000002E-5 0.9997000900000002 9.997000000000002E-5 9.997000000000002E-5 9.997000000000002E-5 0.9997000900000002 9.997000000000002E-5 9.997000000000002E-5 9.997000000000002E-5 0.9997000900000002 9.997000000000002E-5 9.997000000000002E-5 9.997000000000002E-5 0.9997000900000002 9.997000000000002E-5 9.997000000000002E-5 9.997000000000002E-5 0.9997000900000002 9.997000000000002E-5 9.997000000000002E-5 9.997000000000002E-5 0.9997000900000002 9.997000000000002E-5 9.997000000000002E-5 9.997000000000002E-5 0.9997000900000002 9.997000000000002E-5 9.997000000000002E-5 9.997000000000002E-5 0.9997000900000002 9.997000000000002E-5 9.997000000000002E-5 9.997000000000002E-5 0.9997000900000002 9.997000000000002E-5 9.997000000000002E-5 9.997000000000002E-5 0.9997000900000002 9.997000000000002E-5 9.997000000000002E-5 9.997000000000002E-5 0.9997000900000002 9.997000000000002E-5 9.997000000000002E-5 9.997000000000002E-5 0.9997000900000002 9.997000000000002E-5 9.997000000000002E-5 9.997000000000002E-5 0.9997000900000002 9.997000000000002E-5 9.997000000000002E-5 9.997000000000002E-5 0.9997000900000002 9.997000000000002E-5 9.997000000000002E-5 9.997000000000002E-5 0.9997000900000002 9.997000000000002E-5 9.997000000000002E-5 9.997000000000002E-5 0.9997000900000002 9.997000000000002E-5 9.997000000000002E-5 9.997000000000002E-5 0.9997000900000002 9.997000000000002E-5 9.997000000000002E-5 9.997000000000002E-5 0.9997000900000002 9.997000000000002E-5 9.997000000000002E-5 9.997000000000002E-5 0.9997000900000002 9.997000000000002E-5 9.997000000000002E-5 9.997000000000002E-5 0.9997000900000002 9.997000000000002E-5 9.997000000000002E-5 9.997000000000002E-5 0.9997000900000002 9.997000000000002E-5 9.997000000000002E-5 9.997000000000002E-5 0.9997000900000002 9.997000000000002E-5 9.997000000000002E-5 9.997000000000002E-5 0.9997000900000002 9.997000000000002E-5 9.997000000000002E-5 9.997000000000002E-5 0.9997000900000002 9.997000000000002E-5 9.997000000000002E-5 9.997000000000002E-5 0.9997000900000002 9.997000000000002E-5 9.997000000000002E-5 9.997000000000002E-5 0.9997000900000002 9.997000000000002E-5 9.997000000000002E-5 9.997000000000002E-5 0.9997000900000002 9.997000000000002E-5 9.997000000000002E-5 9.997000000000002E-5 0.9997000900000002 9.997000000000002E-5 9.997000000000002E-5 9.997000000000002E-5 0.9997000900000002 9.997000000000002E-5 9.997000000000002E-5 9.997000000000002E-5 0.9997000900000002 9.997000000000002E-5 9.997000000000002E-5 9.997000000000002E-5 0.9997000900000002 9.997000000000002E-5 9.997000000000002E-5 9.997000000000002E-5 9.997E-5 9.997E-5 0.99970009 9.997E-5 9.997E-5 9.997E-5 0.99970009 9.997E-5 9.997E-5 9.997E-5 0.99970009 9.997E-5 9.997E-5 9.997E-5 0.99970009 9.997E-5 9.997000000000002E-5 0.9997000900000002 9.997000000000002E-5 9.997000000000002E-5 9.997000000000002E-5 0.9997000900000002 9.997000000000002E-5 9.997000000000002E-5 9.997000000000002E-5 0.9997000900000002 9.997000000000002E-5 9.997000000000002E-5 9.997E-5 9.997E-5 0.99970009 9.997E-5 9.997000000000002E-5 0.9997000900000002 9.997000000000002E-5 9.997000000000002E-5 9.997000000000002E-5 0.9997000900000002 9.997000000000002E-5 9.997000000000002E-5 9.997000000000002E-5 0.9997000900000002 9.997000000000002E-5 9.997000000000002E-5 9.997000000000002E-5 0.9997000900000002 9.997000000000002E-5 9.997000000000002E-5 9.997000000000002E-5 0.9997000900000002 9.997000000000002E-5 9.997000000000002E-5 9.997000000000002E-5 0.9997000900000002 9.997000000000002E-5 9.997000000000002E-5 9.997000000000002E-5 0.9997000900000002 9.997000000000002E-5 9.997000000000002E-5 9.997000000000002E-5 0.9997000900000002 9.997000000000002E-5 9.997000000000002E-5 9.997000000000002E-5 0.9997000900000002 9.997000000000002E-5 9.997000000000002E-5 9.997000000000002E-5 0.9997000900000002 9.997000000000002E-5 9.997000000000002E-5 9.997000000000002E-5 0.9997000900000002 9.997000000000002E-5 9.997000000000002E-5 9.997000000000002E-5 0.9997000900000002 9.997000000000002E-5 9.997000000000002E-5 9.997000000000002E-5 0.9997000900000002 9.997000000000002E-5 9.997000000000002E-5 9.997000000000002E-5 0.9997000900000002 9.997000000000002E-5 9.997000000000002E-5 9.997000000000002E-5 0.9997000900000002 9.997000000000002E-5 9.997000000000002E-5 9.997000000000002E-5 0.9997000900000002 9.997000000000002E-5 9.997000000000002E-5 9.997000000000002E-5 0.9997000900000002 9.997000000000002E-5 9.997000000000002E-5 0.99180164 0.0079984 9.998E-5 9.998E-5 0.9997000900000002 9.997000000000002E-5 9.997000000000002E-5 9.997000000000002E-5 0.9997000900000002 9.997000000000002E-5 9.997000000000002E-5 9.997000000000002E-5 9.997000000000002E-5 0.9997000900000002 9.997000000000002E-5 9.997000000000002E-5 0.9997000900000002 9.997000000000002E-5 9.997000000000002E-5 9.997000000000002E-5 0.9997000900000002 9.997000000000002E-5 9.997000000000002E-5 9.997000000000002E-5 0.9997000900000002 9.997000000000002E-5 9.997000000000002E-5 9.997000000000002E-5 0.9997000900000002 9.997000000000002E-5 9.997000000000002E-5 9.997000000000002E-5 0.9997000900000002 9.997000000000002E-5 9.997000000000002E-5 9.997000000000002E-5 0.9997000900000002 9.997000000000002E-5 9.997000000000002E-5 9.997000000000002E-5 0.9997000900000002 9.997000000000002E-5 9.997000000000002E-5 9.997000000000002E-5 0.9997000900000002 9.997000000000002E-5 9.997000000000002E-5 9.997000000000002E-5 0.9997000900000002 9.997000000000002E-5 9.997000000000002E-5 9.997000000000002E-5 0.9997000900000002 9.997000000000002E-5 9.997000000000002E-5 9.997000000000002E-5 0.9997000900000002 9.997000000000002E-5 9.997000000000002E-5 9.997000000000002E-5 0.9997000900000002 9.997000000000002E-5 9.997000000000002E-5 9.997000000000002E-5 0.9997000900000002 9.997000000000002E-5 9.997000000000002E-5 9.997000000000002E-5 0.9997000900000002 9.997000000000002E-5 9.997000000000002E-5 9.997000000000002E-5 0.9997000900000002 9.997000000000002E-5 9.997000000000002E-5 9.997000000000002E-5 0.9997000900000002 9.997000000000002E-5 9.997000000000002E-5 9.997000000000002E-5 0.9997000900000002 9.997000000000002E-5 9.997000000000002E-5 9.997000000000002E-5 0.9997000900000002 9.997000000000002E-5 9.997000000000002E-5 9.997000000000002E-5 0.9997000900000002 9.997000000000002E-5 9.997000000000002E-5 9.997000000000002E-5 0.9997000900000002 9.997000000000002E-5 9.997000000000002E-5 9.997000000000002E-5 0.9997000900000002 9.997000000000002E-5 9.997000000000002E-5 9.997000000000002E-5 0.9997000900000002 9.997000000000002E-5 9.997000000000002E-5 9.997000000000002E-5 0.9997000900000002 9.997000000000002E-5 9.997000000000002E-5 9.997000000000002E-5 0.9997000900000002 9.997000000000002E-5 9.997000000000002E-5 9.997000000000002E-5 0.9997000900000002 9.997000000000002E-5 9.997000000000002E-5 9.997000000000002E-5 0.9997000900000002 9.997000000000002E-5 9.997000000000002E-5 9.997000000000002E-5 0.9997000900000002 9.997000000000002E-5 9.997000000000002E-5 9.997000000000002E-5 0.9997000900000002 9.997000000000002E-5 9.997000000000002E-5 9.997000000000002E-5 0.9997000900000002 9.997000000000002E-5 9.997000000000002E-5 9.997000000000002E-5 0.9997000900000002 9.997000000000002E-5 9.997000000000002E-5 9.997000000000002E-5 0.9997000900000002 9.997000000000002E-5 9.997000000000002E-5 9.997000000000002E-5 0.9997000900000002 9.997000000000002E-5 9.997000000000002E-5 9.997000000000002E-5 0.9997000900000002 9.997000000000002E-5 9.997000000000002E-5 9.997000000000002E-5 0.9997000900000002 9.997000000000002E-5 9.997000000000002E-5 9.997000000000002E-5 9.997E-5 9.997E-5 0.99970009 9.997E-5 9.997E-5 9.997E-5 0.99970009 9.997E-5 9.997E-5 9.997E-5 0.99970009 9.997E-5 9.997E-5 9.997E-5 0.99970009 9.997E-5 9.997E-5 9.997E-5 0.99970009 9.997E-5 9.997E-5 9.997E-5 0.99970009 9.997E-5 9.997E-5 9.997E-5 0.99970009 9.997E-5 9.997E-5 9.997E-5 0.99970009 9.997E-5 9.997E-5 9.997E-5 0.99970009 9.997E-5 9.997E-5 9.997E-5 0.99970009 9.997E-5 9.997E-5 9.997E-5 0.99970009 9.997E-5 9.997E-5 9.997E-5 0.99970009 9.997E-5 9.997E-5 9.997E-5 0.99970009 9.997E-5 9.997000000000002E-5 0.9997000900000002 9.997000000000002E-5 9.997000000000002E-5 9.997E-5 9.997E-5 0.99970009 9.997E-5 9.997E-5 9.997E-5 0.99970009 9.997E-5 9.997E-5 9.997E-5 0.99970009 9.997E-5 9.997000000000002E-5 0.9997000900000002 9.997000000000002E-5 9.997000000000002E-5 9.997000000000002E-5 0.9997000900000002 9.997000000000002E-5 9.997000000000002E-5 9.997000000000002E-5 0.9997000900000002 9.997000000000002E-5 9.997000000000002E-5 9.997000000000002E-5 0.9997000900000002 9.997000000000002E-5 9.997000000000002E-5 9.998E-5 0.87212557 0.12767447 9.998E-5 9.997000000000002E-5 0.9997000900000002 9.997000000000002E-5 9.997000000000002E-5 9.997000000000002E-5 0.9997000900000002 9.997000000000002E-5 9.997000000000002E-5 9.997000000000002E-5 0.9997000900000002 9.997000000000002E-5 9.997000000000002E-5 9.997000000000002E-5 0.9997000900000002 9.997000000000002E-5 9.997000000000002E-5 9.997000000000002E-5 0.9997000900000002 9.997000000000002E-5 9.997000000000002E-5 9.997000000000002E-5 0.9997000900000002 9.997000000000002E-5 9.997000000000002E-5 9.997000000000002E-5 0.9997000900000002 9.997000000000002E-5 9.997000000000002E-5 9.997000000000002E-5 0.9997000900000002 9.997000000000002E-5 9.997000000000002E-5 9.997000000000002E-5 0.9997000900000002 9.997000000000002E-5 9.997000000000002E-5 9.997000000000002E-5 0.9997000900000002 9.997000000000002E-5 9.997000000000002E-5 9.997000000000002E-5 0.9997000900000002 9.997000000000002E-5 9.997000000000002E-5 9.997000000000002E-5 0.9997000900000002 9.997000000000002E-5 9.997000000000002E-5 0.09158168 0.90821836 9.998E-5 9.998E-5 9.997000000000002E-5 0.9997000900000002 9.997000000000002E-5 9.997000000000002E-5 9.997000000000002E-5 0.9997000900000002 9.997000000000002E-5 9.997000000000002E-5 0.99970006 9.998E-5 9.998E-5 9.998E-5 0.9997000900000002 9.997000000000002E-5 9.997000000000002E-5 9.997000000000002E-5 0.9997000900000002 9.997000000000002E-5 9.997000000000002E-5 9.997000000000002E-5 0.9997000900000002 9.997000000000002E-5 9.997000000000002E-5 9.997000000000002E-5 0.9997000900000002 9.997000000000002E-5 9.997000000000002E-5 9.997000000000002E-5 0.9997000900000002 9.997000000000002E-5 9.997000000000002E-5 9.997000000000002E-5 0.9997000900000002 9.997000000000002E-5 9.997000000000002E-5 9.997000000000002E-5 0.9997000900000002 9.997000000000002E-5 9.997000000000002E-5 9.997000000000002E-5 0.9997000900000002 9.997000000000002E-5 9.997000000000002E-5 9.997000000000002E-5 0.9997000900000002 9.997000000000002E-5 9.997000000000002E-5 9.997000000000002E-5 0.9997000900000002 9.997000000000002E-5 9.997000000000002E-5 9.997000000000002E-5 0.9997000900000002 9.997000000000002E-5 9.997000000000002E-5 9.997000000000002E-5 0.9997000900000002 9.997000000000002E-5 9.997000000000002E-5 9.997000000000002E-5 0.9997000900000002 9.997000000000002E-5 9.997000000000002E-5 9.997000000000002E-5 0.9997000900000002 9.997000000000002E-5 9.997000000000002E-5 9.997000000000002E-5 0.9997000900000002 9.997000000000002E-5 9.997000000000002E-5 9.997000000000002E-5 0.9997000900000002 9.997000000000002E-5 9.997000000000002E-5 9.997000000000002E-5 0.9997000900000002 9.997000000000002E-5 9.997000000000002E-5 9.997000000000002E-5 0.9997000900000002 9.997000000000002E-5 9.997000000000002E-5 9.997000000000002E-5 0.9997000900000002 9.997000000000002E-5 9.997000000000002E-5 9.997000000000002E-5 0.9997000900000002 9.997000000000002E-5 9.997000000000002E-5 9.997000000000002E-5 0.9997000900000002 9.997000000000002E-5 9.997000000000002E-5 9.997000000000002E-5 0.9997000900000002 9.997000000000002E-5 9.997000000000002E-5 9.997000000000002E-5 0.9997000900000002 9.997000000000002E-5 9.997000000000002E-5 9.997000000000002E-5 0.9997000900000002 9.997000000000002E-5 9.997000000000002E-5 9.997000000000002E-5 0.9997000900000002 9.997000000000002E-5 9.997000000000002E-5 9.997000000000002E-5 9.997000000000002E-5 0.9997000900000002 9.997000000000002E-5 9.997000000000002E-5 9.997000000000002E-5 0.9997000900000002 9.997000000000002E-5 9.997000000000002E-5 9.997000000000002E-5 0.9997000900000002 9.997000000000002E-5 9.997000000000002E-5 9.997E-5 9.997E-5 0.99970009 9.997E-5 9.997E-5 9.997E-5 0.99970009 9.997E-5 9.997E-5 9.997E-5 0.99970009 9.997E-5 9.997E-5 9.997E-5 0.99970009 9.997E-5 9.997E-5 9.997E-5 0.99970009 9.997E-5 9.997E-5 9.997E-5 0.99970009 9.997E-5 9.997E-5 9.997E-5 0.99970009 9.997E-5 9.997E-5 9.997E-5 0.99970009 9.997E-5 9.997E-5 9.997E-5 0.99970009 9.997E-5 9.997E-5 9.997E-5 0.99970009 9.997E-5 9.997E-5 9.997E-5 0.99970009 9.997E-5 9.997E-5 9.997E-5 0.99970009 9.997E-5 9.997E-5 9.997E-5 0.99970009 9.997E-5 9.997E-5 9.997E-5 0.99970009 9.997E-5 9.997E-5 9.997E-5 0.99970009 9.997E-5 9.997E-5 9.997E-5 0.99970009 9.997E-5 9.997E-5 9.997E-5 0.99970009 9.997E-5 9.997E-5 9.997E-5 0.99970009 9.997E-5 9.997E-5 9.997E-5 0.99970009 9.997E-5 9.997E-5 9.997E-5 0.99970009 9.997E-5 9.997E-5 9.997E-5 0.99970009 9.997E-5 9.997E-5 9.997E-5 0.99970009 9.997E-5 9.997E-5 9.997E-5 0.99970009 9.997E-5 9.998E-5 0.99210158 0.00769846 9.998E-5 9.997000000000002E-5 0.9997000900000002 9.997000000000002E-5 9.997000000000002E-5 9.997E-5 9.997E-5 0.99970009 9.997E-5 9.997E-5 9.997E-5 0.99970009 9.997E-5 9.997E-5 9.997E-5 0.99970009 9.997E-5 9.997000000000002E-5 0.9997000900000002 9.997000000000002E-5 9.997000000000002E-5 9.997000000000002E-5 0.9997000900000002 9.997000000000002E-5 9.997000000000002E-5 9.997000000000002E-5 0.9997000900000002 9.997000000000002E-5 9.997000000000002E-5 9.997000000000002E-5 0.9997000900000002 9.997000000000002E-5 9.997000000000002E-5 9.997000000000002E-5 0.9997000900000002 9.997000000000002E-5 9.997000000000002E-5 9.997000000000002E-5 0.9997000900000002 9.997000000000002E-5 9.997000000000002E-5 9.997000000000002E-5 0.9997000900000002 9.997000000000002E-5 9.997000000000002E-5 9.997000000000002E-5 0.9997000900000002 9.997000000000002E-5 9.997000000000002E-5 9.997000000000002E-5 0.9997000900000002 9.997000000000002E-5 9.997000000000002E-5 9.997000000000002E-5 0.9997000900000002 9.997000000000002E-5 9.997000000000002E-5 9.997000000000002E-5 0.9997000900000002 9.997000000000002E-5 9.997000000000002E-5 9.997000000000002E-5 0.9997000900000002 9.997000000000002E-5 9.997000000000002E-5 9.997000000000002E-5 0.9997000900000002 9.997000000000002E-5 9.997000000000002E-5 0.9997000900000002 9.997000000000002E-5 9.997000000000002E-5 9.997000000000002E-5 0.9997000900000002 9.997000000000002E-5 9.997000000000002E-5 9.997000000000002E-5 0.9997000900000002 9.997000000000002E-5 9.997000000000002E-5 9.997000000000002E-5 0.9997000900000002 9.997000000000002E-5 9.997000000000002E-5 9.997000000000002E-5 0.9997000900000002 9.997000000000002E-5 9.997000000000002E-5 9.997000000000002E-5 0.9997000900000002 9.997000000000002E-5 9.997000000000002E-5 9.997000000000002E-5 0.9997000900000002 9.997000000000002E-5 9.997000000000002E-5 9.997000000000002E-5 0.9997000900000002 9.997000000000002E-5 9.997000000000002E-5 9.997000000000002E-5 0.9997000900000002 9.997000000000002E-5 9.997000000000002E-5 9.997000000000002E-5 0.9997000900000002 9.997000000000002E-5 9.997000000000002E-5 9.997000000000002E-5 0.9997000900000002 9.997000000000002E-5 9.997000000000002E-5 9.997000000000002E-5 0.9997000900000002 9.997000000000002E-5 9.997000000000002E-5 9.997000000000002E-5 0.9997000900000002 9.997000000000002E-5 9.997000000000002E-5 9.997000000000002E-5 0.9997000900000002 9.997000000000002E-5 9.997000000000002E-5 9.997000000000002E-5 0.9997000900000002 9.997000000000002E-5 9.997000000000002E-5 9.997000000000002E-5 0.9997000900000002 9.997000000000002E-5 9.997000000000002E-5 9.997000000000002E-5 0.9997000900000002 9.997000000000002E-5 9.997000000000002E-5 9.997000000000002E-5 0.9997000900000002 9.997000000000002E-5 9.997000000000002E-5 9.997000000000002E-5 0.9997000900000002 9.997000000000002E-5 9.997000000000002E-5 9.997000000000002E-5 9.997000000000002E-5 0.9997000900000002 9.997000000000002E-5 9.997000000000002E-5 9.997000000000002E-5 0.9997000900000002 9.997000000000002E-5 9.997000000000002E-5 9.997000000000002E-5 0.9997000900000002 9.997000000000002E-5 9.997000000000002E-5 9.997000000000002E-5 0.9997000900000002 9.997000000000002E-5 9.997000000000002E-5 9.997000000000002E-5 0.9997000900000002 9.997000000000002E-5 9.997000000000002E-5 9.997000000000002E-5 0.9997000900000002 9.997000000000002E-5 9.997000000000002E-5 9.997000000000002E-5 0.9997000900000002 9.997000000000002E-5 9.997000000000002E-5 9.997000000000002E-5 0.9997000900000002 9.997000000000002E-5 9.997000000000002E-5 9.997000000000002E-5 0.9997000900000002 9.997000000000002E-5 9.997000000000002E-5 9.997000000000002E-5 0.9997000900000002 9.997000000000002E-5 9.997000000000002E-5 9.997000000000002E-5 0.9997000900000002 9.997000000000002E-5 9.997000000000002E-5 9.997000000000002E-5 0.9997000900000002 9.997000000000002E-5 9.997000000000002E-5 9.997000000000002E-5 0.9997000900000002 9.997000000000002E-5 9.997000000000002E-5 9.997000000000002E-5 0.9997000900000002 9.997000000000002E-5 9.997000000000002E-5 9.997000000000002E-5 0.9997000900000002 9.997000000000002E-5 9.997000000000002E-5 9.997E-5 9.997E-5 0.99970009 9.997E-5 9.997E-5 9.997E-5 0.99970009 9.997E-5 9.997E-5 9.997E-5 0.99970009 9.997E-5 9.997E-5 9.997E-5 0.99970009 9.997E-5 9.997E-5 9.997E-5 0.99970009 9.997E-5 9.997E-5 9.997E-5 0.99970009 9.997E-5 9.997E-5 9.997E-5 0.99970009 9.997E-5 9.997E-5 9.997E-5 0.99970009 9.997E-5 9.997E-5 9.997E-5 0.99970009 9.997E-5 9.997E-5 9.997E-5 0.99970009 9.997E-5 9.997E-5 9.997E-5 0.99970009 9.997E-5 9.997E-5 9.997E-5 0.99970009 9.997E-5 9.997E-5 9.997E-5 0.99970009 9.997E-5 9.997E-5 9.997E-5 0.99970009 9.997E-5 9.997E-5 9.997E-5 0.99970009 9.997E-5 9.997E-5 9.997E-5 0.99970009 9.997E-5 9.997E-5 9.997E-5 0.99970009 9.997E-5 9.997E-5 9.997E-5 0.99970009 9.997E-5 9.997E-5 9.997E-5 0.99970009 9.997E-5 9.997E-5 9.997E-5 0.99970009 9.997E-5 9.997E-5 9.997E-5 0.99970009 9.997E-5 9.997E-5 9.997E-5 0.99970009 9.997E-5 9.997E-5 9.997E-5 0.99970009 9.997E-5 9.997E-5 9.997E-5 0.99970009 9.997E-5 9.997000000000002E-5 0.9997000900000002 9.997000000000002E-5 9.997000000000002E-5 9.997000000000002E-5 0.9997000900000002 9.997000000000002E-5 9.997000000000002E-5 9.997000000000002E-5 0.9997000900000002 9.997000000000002E-5 9.997000000000002E-5 9.997000000000002E-5 0.9997000900000002 9.997000000000002E-5 9.997000000000002E-5 9.997000000000002E-5 0.9997000900000002 9.997000000000002E-5 9.997000000000002E-5 9.997000000000002E-5 0.9997000900000002 9.997000000000002E-5 9.997000000000002E-5 9.997000000000002E-5 0.9997000900000002 9.997000000000002E-5 9.997000000000002E-5 9.997000000000002E-5 0.9997000900000002 9.997000000000002E-5 9.997000000000002E-5 9.997000000000002E-5 0.9997000900000002 9.997000000000002E-5 9.997000000000002E-5 9.997000000000002E-5 0.9997000900000002 9.997000000000002E-5 9.997000000000002E-5 9.997000000000002E-5 0.9997000900000002 9.997000000000002E-5 9.997000000000002E-5 0.9990002 7.9984E-4 9.998E-5 9.998E-5 0.9997000900000002 9.997000000000002E-5 9.997000000000002E-5 9.997000000000002E-5 0.9997000900000002 9.997000000000002E-5 9.997000000000002E-5 9.997000000000002E-5 0.9997000900000002 9.997000000000002E-5 9.997000000000002E-5 9.997000000000002E-5 0.9997000900000002 9.997000000000002E-5 9.997000000000002E-5 9.997000000000002E-5 0.9997000900000002 9.997000000000002E-5 9.997000000000002E-5 9.997000000000002E-5 0.9997000900000002 9.997000000000002E-5 9.997000000000002E-5 9.997000000000002E-5 0.9997000900000002 9.997000000000002E-5 9.997000000000002E-5 9.997000000000002E-5 0.9997000900000002 9.997000000000002E-5 9.997000000000002E-5 9.997000000000002E-5 0.9997000900000002 9.997000000000002E-5 9.997000000000002E-5 9.997000000000002E-5 0.9997000900000002 9.997000000000002E-5 9.997000000000002E-5 9.997000000000002E-5 0.9997000900000002 9.997000000000002E-5 9.997000000000002E-5 9.997000000000002E-5 0.9997000900000002 9.997000000000002E-5 9.997000000000002E-5 9.997000000000002E-5 0.9997000900000002 9.997000000000002E-5 9.997000000000002E-5 9.997000000000002E-5 0.9997000900000002 9.997000000000002E-5 9.997000000000002E-5 9.997000000000002E-5 0.9997000900000002 9.997000000000002E-5 9.997000000000002E-5 9.997000000000002E-5 0.17066587 0.82913417 9.998E-5 9.998E-5 9.997000000000002E-5 0.9997000900000002 9.997000000000002E-5 9.997000000000002E-5 9.997000000000002E-5 0.9997000900000002 9.997000000000002E-5 9.997000000000002E-5 9.997000000000002E-5 0.9997000900000002 9.997000000000002E-5 9.997000000000002E-5 9.997000000000002E-5 0.9997000900000002 9.997000000000002E-5 9.997000000000002E-5 9.997000000000002E-5 0.9997000900000002 9.997000000000002E-5 9.997000000000002E-5 9.997000000000002E-5 0.9997000900000002 9.997000000000002E-5 9.997000000000002E-5 9.997000000000002E-5 0.9997000900000002 9.997000000000002E-5 9.997000000000002E-5 9.997000000000002E-5 0.9997000900000002 9.997000000000002E-5 9.997000000000002E-5 9.997000000000002E-5 0.9997000900000002 9.997000000000002E-5 9.997000000000002E-5 9.997000000000002E-5 0.9997000900000002 9.997000000000002E-5 9.997000000000002E-5 9.997000000000002E-5 0.9997000900000002 9.997000000000002E-5 9.997000000000002E-5 9.997000000000002E-5 0.9997000900000002 9.997000000000002E-5 9.997000000000002E-5 9.997000000000002E-5 0.9997000900000002 9.997000000000002E-5 9.997000000000002E-5 9.997000000000002E-5 0.9997000900000002 9.997000000000002E-5 9.997000000000002E-5 9.997000000000002E-5 0.9997000900000002 9.997000000000002E-5 9.997000000000002E-5 9.997000000000002E-5 0.9997000900000002 9.997000000000002E-5 9.997000000000002E-5 9.997000000000002E-5 0.9997000900000002 9.997000000000002E-5 9.997000000000002E-5 9.997000000000002E-5 0.9997000900000002 9.997000000000002E-5 9.997000000000002E-5 9.997000000000002E-5 0.9997000900000002 9.997000000000002E-5 9.997000000000002E-5 9.997000000000002E-5 0.9997000900000002 9.997000000000002E-5 9.997000000000002E-5 9.997000000000002E-5 0.9997000900000002 9.997000000000002E-5 9.997000000000002E-5 9.997000000000002E-5 0.9997000900000002 9.997000000000002E-5 9.997000000000002E-5 9.997000000000002E-5 0.9997000900000002 9.997000000000002E-5 9.997000000000002E-5 9.997000000000002E-5 0.9997000900000002 9.997000000000002E-5 9.997000000000002E-5 9.997000000000002E-5 0.9997000900000002 9.997000000000002E-5 9.997000000000002E-5 9.997000000000002E-5 0.9997000900000002 9.997000000000002E-5 9.997000000000002E-5 9.997000000000002E-5 0.9997000900000002 9.997000000000002E-5 9.997000000000002E-5 9.997000000000002E-5 0.9997000900000002 9.997000000000002E-5 9.997000000000002E-5 9.997000000000002E-5 0.9997000900000002 9.997000000000002E-5 9.997000000000002E-5 9.997000000000002E-5 0.9997000900000002 9.997000000000002E-5 9.997000000000002E-5 9.997E-5 9.997E-5 0.99970009 9.997E-5 9.997E-5 9.997E-5 0.99970009 9.997E-5 9.997E-5 9.997E-5 0.99970009 9.997E-5 9.997E-5 9.997E-5 0.99970009 9.997E-5 9.997E-5 9.997E-5 0.99970009 9.997E-5 9.997E-5 9.997E-5 0.99970009 9.997E-5 9.997E-5 9.997E-5 0.99970009 9.997E-5 9.997E-5 9.997E-5 0.99970009 9.997E-5 9.997E-5 9.997E-5 0.99970009 9.997E-5 9.997E-5 9.997E-5 0.99970009 9.997E-5 9.997E-5 9.997E-5 0.99970009 9.997E-5 9.997E-5 9.997E-5 0.99970009 9.997E-5 9.997E-5 9.997E-5 0.99970009 9.997E-5 9.997E-5 9.997E-5 0.99970009 9.997E-5 9.997000000000002E-5 0.9997000900000002 9.997000000000002E-5 9.997000000000002E-5 9.998E-5 0.99720056 0.00259948 9.998E-5 9.997000000000002E-5 0.9997000900000002 9.997000000000002E-5 9.997000000000002E-5 9.997000000000002E-5 0.9997000900000002 9.997000000000002E-5 9.997000000000002E-5 9.997000000000002E-5 0.9997000900000002 9.997000000000002E-5 9.997000000000002E-5 9.997000000000002E-5 0.9997000900000002 9.997000000000002E-5 9.997000000000002E-5 9.997000000000002E-5 0.9997000900000002 9.997000000000002E-5 9.997000000000002E-5 9.997000000000002E-5 0.9997000900000002 9.997000000000002E-5 9.997000000000002E-5 9.997000000000002E-5 0.9997000900000002 9.997000000000002E-5 9.997000000000002E-5 0.9997000900000002 9.997000000000002E-5 9.997000000000002E-5 9.997000000000002E-5 0.9997000900000002 9.997000000000002E-5 9.997000000000002E-5 9.997000000000002E-5 0.9997000900000002 9.997000000000002E-5 9.997000000000002E-5 9.997000000000002E-5 0.9997000900000002 9.997000000000002E-5 9.997000000000002E-5 9.997000000000002E-5 0.9997000900000002 9.997000000000002E-5 9.997000000000002E-5 9.997000000000002E-5 0.9997000900000002 9.997000000000002E-5 9.997000000000002E-5 9.997000000000002E-5 </TABLE>
  </DEFINITION>

  <DEFINITION>
    <FOR>saakern</FOR>
    <GIVEN>saamng</GIVEN>
    <GIVEN>tkvs</GIVEN>
    <TABLE>9.994E-5 0.99940036 9.994E-5 9.994E-5 9.994E-5 9.994E-5 9.994E-5 0.99940036 9.994E-5 9.994E-5 9.994E-5 9.994E-5 9.994E-5 9.994E-5 0.99940036 9.994E-5 9.994E-5 9.994E-5 9.994E-5 9.994E-5 9.994E-5 0.99940036 9.994E-5 9.994E-5 9.994E-5 9.994E-5 9.994E-5 9.994E-5 0.99940036 9.994E-5 9.994E-5 9.994E-5 9.994E-5 9.994E-5 9.994E-5 0.99940036 9.994E-5 9.994E-5 9.994E-5 9.994E-5 9.994E-5 9.994E-5 0.99940036 9.994E-5 9.994E-5 9.994E-5 9.994E-5 9.994E-5 9.994E-5 0.99940036 9.994E-5 9.994E-5 9.994E-5 9.994E-5 9.994E-5 9.994E-5 0.99940036 9.994E-5 9.994E-5 9.994E-5 9.994E-5 9.994E-5 9.994E-5 9.994E-5 9.994E-5 0.99940036 9.994E-5 9.994E-5 9.994E-5 9.994E-5 9.994E-5 0.99940036 9.994E-5 9.994E-5 9.994E-5 9.994E-5 9.994E-5 9.994E-5 0.99940036 9.994E-5 9.994E-5 9.994E-5 9.994E-5 9.994E-5 9.994E-5 0.99940036 9.994E-5 9.994E-5 9.994E-5 9.994E-5 9.994E-5 9.994E-5 0.99940036 9.994E-5 9.994E-5 9.994E-5 9.994E-5 9.994E-5 0.99940036 9.994E-5 9.994E-5 9.994E-5 9.994E-5 9.994E-5 9.994E-5 0.99940036 9.994E-5 9.994E-5 9.994E-5 9.994E-5 9.994E-5 9.994E-5 0.99940036 9.994E-5 9.994E-5 9.994E-5 9.994E-5 9.994E-5 9.994E-5 0.99940036 9.994E-5 9.994E-5 9.994E-5 9.994E-5 9.994E-5 9.994E-5 9.994E-5 9.994E-5 9.994E-5 0.99940036 9.994E-5 9.994E-5 9.994E-5 9.994E-5 9.994E-5 0.99940036 9.994E-5 9.994E-5 9.994E-5 9.994E-5 9.994E-5 9.994E-5 0.99940036 9.994E-5 9.994E-5 9.994E-5 9.994E-5 9.994E-5 9.994E-5 0.99940036 9.994E-5 9.994E-5 9.994E-5 9.994E-5 9.994E-5 0.99940036 9.994E-5 9.994E-5 9.994E-5 9.994E-5 9.994E-5 9.994E-5 0.99940036 9.994E-5 9.994E-5 9.994E-5 9.994E-5 9.994E-5 9.994E-5 0.99940036 9.994E-5 9.994E-5 9.994E-5 9.994E-5 9.994E-5 9.994E-5 0.99940036 9.994E-5 9.994E-5 9.994E-5 9.994E-5 9.994E-5 0.99940036 9.994E-5 9.994E-5 9.994E-5 9.994E-5 9.994E-5 9.994E-5 9.994E-5 9.994E-5 9.994E-5 9.994E-5 0.99940036 9.994E-5 9.994E-5 9.994E-5 9.994E-5 9.994E-5 0.99940036 9.994E-5 9.994E-5 9.994E-5 9.994E-5 9.994E-5 9.994E-5 0.99940036 9.994E-5 9.994E-5 9.994E-5 9.994E-5 9.994E-5 9.994E-5 0.99940036 9.994E-5 9.994E-5 9.994E-5 9.994E-5 9.994E-5 0.99940036 9.994E-5 9.994E-5 9.994E-5 9.994E-5 9.994E-5 9.994E-5 0.99940036 9.994E-5 9.994E-5 9.994E-5 9.994E-5 9.994E-5 9.994E-5 0.99940036 9.994E-5 9.994E-5 9.994E-5 9.994E-5 9.994E-5 9.994E-5 0.99940036 9.994E-5 9.994E-5 9.994E-5 9.994E-5 9.994E-5 0.99940036 9.994E-5 9.994E-5 9.994E-5 9.994E-5 9.994E-5 9.994E-5 9.994E-5 9.994E-5 9.994E-5 9.994E-5 9.994E-5 0.99940036 9.994E-5 9.994E-5 9.994E-5 9.994E-5 0.99940036 9.994E-5 9.994E-5 9.994E-5 9.994E-5 9.994E-5 9.994E-5 0.99940036 9.994E-5 9.994E-5 9.994E-5 9.994E-5 9.994E-5 9.994E-5 0.99940036 9.994E-5 9.994E-5 9.994E-5 9.994E-5 9.994E-5 0.99940036 9.994E-5 9.994E-5 9.994E-5 9.994E-5 9.994E-5 9.994E-5 0.99940036 9.994E-5 9.994E-5 9.994E-5 9.994E-5 9.994E-5 9.994E-5 0.99940036 9.994E-5 9.994E-5 9.994E-5 9.994E-5 9.994E-5 0.99940036 9.994E-5 9.994E-5 9.994E-5 9.994E-5 9.994E-5 9.994E-5 0.99940036 9.994E-5 9.994E-5 9.994E-5 9.994E-5 9.994E-5 9.994E-5 9.994E-5 9.994E-5 9.994E-5 9.994E-5 0.99940036 9.994E-5 9.994E-5 9.994E-5 9.994E-5 9.994E-5 9.994E-5 0.99940036 9.994E-5 9.994E-5 9.994E-5 9.994E-5 9.994E-5 0.99940036 9.994E-5 9.994E-5 9.994E-5 9.994E-5 9.994E-5 0.99940036 9.994E-5 9.994E-5 9.994E-5 9.994E-5 9.994E-5 9.994E-5 0.99940036 9.994E-5 9.994E-5 9.994E-5 9.994E-5 9.994E-5 9.994E-5 0.99940036 9.994E-5 9.994E-5 9.994E-5 9.994E-5 9.994E-5 9.994E-5 0.99940036 9.994E-5 9.994E-5 9.994E-5 9.994E-5 9.994E-5 0.99940036 9.994E-5 9.994E-5 9.994E-5 9.994E-5 9.994E-5 9.994E-5 0.99940036 9.994E-5 9.994E-5 9.994E-5 9.994E-5 9.994E-5 9.994E-5 9.994E-5 9.994E-5 9.994E-5 0.99940036 9.994E-5 9.994E-5 9.994E-5 9.994E-5 9.994E-5 9.994E-5 0.99940036 9.994E-5 9.994E-5 9.994E-5 9.994E-5 9.994E-5 9.994E-5 0.99940036 9.994E-5 9.994E-5 9.994E-5 9.994E-5 9.994E-5 0.99940036 9.994E-5 9.994E-5 9.994E-5 9.994E-5 9.994E-5 9.994E-5 0.99940036 9.994E-5 9.994E-5 9.994E-5 9.994E-5 9.994E-5 9.994E-5 0.99940036 9.994E-5 9.994E-5 9.994E-5 9.994E-5 9.994E-5 0.99940036 9.994E-5 9.994E-5 9.994E-5 9.994E-5 9.994E-5 9.994E-5 0.99940036 9.994E-5 9.994E-5 9.994E-5 9.994E-5 9.994E-5 0.99940036 9.994E-5 9.994E-5 9.994E-5 9.994E-5 9.994E-5 9.994E-5 9.994E-5 9.994E-5 9.994E-5 0.99940036 9.994E-5 9.994E-5 9.994E-5 9.994E-5 9.994E-5 9.994E-5 0.99940036 9.994E-5 9.994E-5 9.994E-5 9.994E-5 9.994E-5 9.994E-5 0.99940036 9.994E-5 9.994E-5 9.994E-5 9.994E-5 9.994E-5 9.994E-5 0.99940036 9.994E-5 9.994E-5 9.994E-5 9.994E-5 9.994E-5 9.994E-5 0.99940036 9.994E-5 9.994E-5 9.994E-5 9.994E-5 9.994E-5 9.994E-5 0.99940036 9.994E-5 9.994E-5 9.994E-5 9.994E-5 9.994E-5 0.99940036 9.994E-5 9.994E-5 9.994E-5 9.994E-5 9.994E-5 9.994E-5 0.99940036 9.994E-5 9.994E-5 9.994E-5 9.994E-5 9.994E-5 0.99940036 9.994E-5 9.994E-5 9.994E-5 9.994E-5 9.994E-5 9.994E-5 9.994E-5 9.994E-5 0.99940036 9.994E-5 9.994E-5 9.994E-5 9.994E-5 9.994E-5 9.994E-5 0.99940036 9.994E-5 9.994E-5 9.994E-5 9.994E-5 9.994E-5 9.994E-5 0.99940036 9.994E-5 9.994E-5 9.994E-5 9.994E-5 9.994E-5 9.994E-5 0.99940036 9.994E-5 9.994E-5 9.994E-5 9.994E-5 9.994E-5 9.994E-5 0.99940036 9.994E-5 9.994E-5 9.994E-5 9.994E-5 9.994E-5 9.994E-5 0.99940036 9.994E-5 9.994E-5 9.994E-5 9.994E-5 9.994E-5 9.994E-5 0.99940036 9.994E-5 9.994E-5 9.994E-5 9.994E-5 9.994E-5 0.99940036 9.994E-5 9.994E-5 9.994E-5 9.994E-5 9.994E-5 9.994E-5 0.99940036 9.994E-5 9.994E-5 9.994E-5 9.994E-5 9.994E-5 9.994E-5 9.994E-5 0.99940036 9.994E-5 9.994E-5 9.994E-5 9.994E-5 9.994E-5 9.994E-5 0.99940036 9.994E-5 9.994E-5 9.994E-5 9.994E-5 9.994E-5 9.994E-5 0.99940036 9.994E-5 9.994E-5 9.994E-5 9.994E-5 9.994E-5 9.994E-5 0.99940036 9.994E-5 9.994E-5 9.994E-5 9.994E-5 9.994E-5 9.994E-5 0.99940036 9.994E-5 9.994E-5 9.994E-5 9.994E-5 9.994E-5 9.994E-5 0.99940036 9.994E-5 9.994E-5 9.994E-5 9.994E-5 9.994E-5 9.994E-5 0.99940036 9.994E-5 9.994E-5 9.994E-5 9.994E-5 9.994E-5 9.994E-5 0.99940036 9.994E-5 9.994E-5 9.994E-5 9.994E-5 9.994E-5 0.99940036 9.994E-5 </TABLE>
  </DEFINITION>

  <DEFINITION>
    <FOR>ngtilg</FOR>
    <GIVEN>ngodn</GIVEN>
    <GIVEN>nplac</GIVEN>
    <GIVEN>dg25</GIVEN>
    <TABLE>0.80621627 0.1779932 0.01489107 2.9982E-4 9.994E-5 9.994E-5 9.994E-5 9.994E-5 9.994E-5 9.994E-5 0.8419106700000002 0.14809633000000003 0.009293490000000001 9.993000000000003E-5 9.993000000000003E-5 9.993000000000003E-5 9.993000000000003E-5 9.993000000000003E-5 9.993000000000003E-5 9.993000000000003E-5 0.9933053599999998 0.005895279999999998 9.991999999999998E-5 9.991999999999998E-5 9.991999999999998E-5 9.991999999999998E-5 9.991999999999998E-5 9.991999999999998E-5 9.991999999999998E-5 9.991999999999998E-5 0.9991008100000002 9.991000000000002E-5 9.991000000000002E-5 9.991000000000002E-5 9.991000000000002E-5 9.991000000000002E-5 9.991000000000002E-5 9.991000000000002E-5 9.991000000000002E-5 9.991000000000002E-5 0.9991008100000002 9.991000000000002E-5 9.991000000000002E-5 9.991000000000002E-5 9.991000000000002E-5 9.991000000000002E-5 9.991000000000002E-5 9.991000000000002E-5 9.991000000000002E-5 9.991000000000002E-5 0.9991008100000002 9.991000000000002E-5 9.991000000000002E-5 9.991000000000002E-5 9.991000000000002E-5 9.991000000000002E-5 9.991000000000002E-5 9.991000000000002E-5 9.991000000000002E-5 9.991000000000002E-5 0.9991008100000002 9.991000000000002E-5 9.991000000000002E-5 9.991000000000002E-5 9.991000000000002E-5 9.991000000000002E-5 9.991000000000002E-5 9.991000000000002E-5 9.991000000000002E-5 9.991000000000002E-5 0.9575339699999997 0.041666669999999996 9.991999999999998E-5 9.991999999999998E-5 9.991999999999998E-5 9.991999999999998E-5 9.991999999999998E-5 9.991999999999998E-5 9.991999999999998E-5 9.991999999999998E-5 0.9683253399999998 0.030875299999999994 9.991999999999998E-5 9.991999999999998E-5 9.991999999999998E-5 9.991999999999998E-5 9.991999999999998E-5 9.991999999999998E-5 9.991999999999998E-5 9.991999999999998E-5 0.9982014399999998 9.991999999999998E-4 9.991999999999998E-5 9.991999999999998E-5 9.991999999999998E-5 9.991999999999998E-5 9.991999999999998E-5 9.991999999999998E-5 9.991999999999998E-5 9.991999999999998E-5 0.9991008100000002 9.991000000000002E-5 9.991000000000002E-5 9.991000000000002E-5 9.991000000000002E-5 9.991000000000002E-5 9.991000000000002E-5 9.991000000000002E-5 9.991000000000002E-5 9.991000000000002E-5 0.9991008100000002 9.991000000000002E-5 9.991000000000002E-5 9.991000000000002E-5 9.991000000000002E-5 9.991000000000002E-5 9.991000000000002E-5 9.991000000000002E-5 9.991000000000002E-5 9.991000000000002E-5 0.9991008100000002 9.991000000000002E-5 9.991000000000002E-5 9.991000000000002E-5 9.991000000000002E-5 9.991000000000002E-5 9.991000000000002E-5 9.991000000000002E-5 9.991000000000002E-5 9.991000000000002E-5 0.9991008100000002 9.991000000000002E-5 9.991000000000002E-5 9.991000000000002E-5 9.991000000000002E-5 9.991000000000002E-5 9.991000000000002E-5 9.991000000000002E-5 9.991000000000002E-5 9.991000000000002E-5 0.9991008100000002 9.991000000000002E-5 9.991000000000002E-5 9.991000000000002E-5 9.991000000000002E-5 9.991000000000002E-5 9.991000000000002E-5 9.991000000000002E-5 9.991000000000002E-5 9.991000000000002E-5 0.9991008100000002 9.991000000000002E-5 9.991000000000002E-5 9.991000000000002E-5 9.991000000000002E-5 9.991000000000002E-5 9.991000000000002E-5 9.991000000000002E-5 9.991000000000002E-5 9.991000000000002E-5 0.9991008100000002 9.991000000000002E-5 9.991000000000002E-5 9.991000000000002E-5 9.991000000000002E-5 9.991000000000002E-5 9.991000000000002E-5 9.991000000000002E-5 9.991000000000002E-5 9.991000000000002E-5 0.9991008100000002 9.991000000000002E-5 9.991000000000002E-5 9.991000000000002E-5 9.991000000000002E-5 9.991000000000002E-5 9.991000000000002E-5 9.991000000000002E-5 9.991000000000002E-5 9.991000000000002E-5 0.9991008100000002 9.991000000000002E-5 9.991000000000002E-5 9.991000000000002E-5 9.991000000000002E-5 9.991000000000002E-5 9.991000000000002E-5 9.991000000000002E-5 9.991000000000002E-5 9.991000000000002E-5 0.9991008100000002 9.991000000000002E-5 9.991000000000002E-5 9.991000000000002E-5 9.991000000000002E-5 9.991000000000002E-5 9.991000000000002E-5 9.991000000000002E-5 9.991000000000002E-5 9.991000000000002E-5 0.9991008100000002 9.991000000000002E-5 9.991000000000002E-5 9.991000000000002E-5 9.991000000000002E-5 9.991000000000002E-5 9.991000000000002E-5 9.991000000000002E-5 9.991000000000002E-5 9.991000000000002E-5 0.33240028000000005 0.33479956000000005 0.23542937000000003 0.08177547000000002 0.013995800000000001 0.0011996400000000003 9.997E-5 9.997E-5 9.997E-5 9.997E-5 0.36665334 0.34406238 0.21581367 0.06367453 0.00879648 5.9976E-4 9.996E-5 9.996E-5 9.996E-5 9.996E-5 0.7482510499999999 0.22276633999999995 0.027583449999999992 7.995199999999997E-4 9.993999999999997E-5 9.993999999999997E-5 9.993999999999997E-5 9.993999999999997E-5 9.993999999999997E-5 9.993999999999997E-5 0.9796142700000002 0.019586290000000003 9.993000000000003E-5 9.993000000000003E-5 9.993000000000003E-5 9.993000000000003E-5 9.993000000000003E-5 9.993000000000003E-5 9.993000000000003E-5 9.993000000000003E-5 0.9991008100000002 9.991000000000002E-5 9.991000000000002E-5 9.991000000000002E-5 9.991000000000002E-5 9.991000000000002E-5 9.991000000000002E-5 9.991000000000002E-5 9.991000000000002E-5 9.991000000000002E-5 0.9991008100000002 9.991000000000002E-5 9.991000000000002E-5 9.991000000000002E-5 9.991000000000002E-5 9.991000000000002E-5 9.991000000000002E-5 9.991000000000002E-5 9.991000000000002E-5 9.991000000000002E-5 0.9991008100000002 9.991000000000002E-5 9.991000000000002E-5 9.991000000000002E-5 9.991000000000002E-5 9.991000000000002E-5 9.991000000000002E-5 9.991000000000002E-5 9.991000000000002E-5 9.991000000000002E-5 0.19318408999999997 0.61303218 0.18848690999999998 0.00469718 9.993999999999998E-5 9.993999999999998E-5 9.993999999999998E-5 9.993999999999998E-5 9.993999999999998E-5 9.993999999999998E-5 0.21906856 0.61862882 0.15870478 0.0029982 9.994E-5 9.994E-5 9.994E-5 9.994E-5 9.994E-5 9.994E-5 0.5172379300000001 0.4632757100000001 0.018786850000000004 9.993000000000003E-5 9.993000000000003E-5 9.993000000000003E-5 9.993000000000003E-5 9.993000000000003E-5 9.993000000000003E-5 9.993000000000003E-5 0.79312413 0.20527683 8.9946E-4 9.994E-5 9.994E-5 9.994E-5 9.994E-5 9.994E-5 9.994E-5 9.994E-5 0.9658273399999998 0.033373299999999995 9.991999999999998E-5 9.991999999999998E-5 9.991999999999998E-5 9.991999999999998E-5 9.991999999999998E-5 9.991999999999998E-5 9.991999999999998E-5 9.991999999999998E-5 0.9970023999999997 0.0021982399999999997 9.991999999999998E-5 9.991999999999998E-5 9.991999999999998E-5 9.991999999999998E-5 9.991999999999998E-5 9.991999999999998E-5 9.991999999999998E-5 9.991999999999998E-5 0.9990007999999998 1.9983999999999996E-4 9.991999999999998E-5 9.991999999999998E-5 9.991999999999998E-5 9.991999999999998E-5 9.991999999999998E-5 9.991999999999998E-5 9.991999999999998E-5 9.991999999999998E-5 9.991000000000002E-5 0.9991008100000002 9.991000000000002E-5 9.991000000000002E-5 9.991000000000002E-5 9.991000000000002E-5 9.991000000000002E-5 9.991000000000002E-5 9.991000000000002E-5 9.991000000000002E-5 9.991000000000002E-5 0.9991008100000002 9.991000000000002E-5 9.991000000000002E-5 9.991000000000002E-5 9.991000000000002E-5 9.991000000000002E-5 9.991000000000002E-5 9.991000000000002E-5 9.991000000000002E-5 9.991000000000002E-5 0.9991008100000002 9.991000000000002E-5 9.991000000000002E-5 9.991000000000002E-5 9.991000000000002E-5 9.991000000000002E-5 9.991000000000002E-5 9.991000000000002E-5 9.991000000000002E-5 9.991000000000002E-5 0.9991008100000002 9.991000000000002E-5 9.991000000000002E-5 9.991000000000002E-5 9.991000000000002E-5 9.991000000000002E-5 9.991000000000002E-5 9.991000000000002E-5 9.991000000000002E-5 9.991000000000002E-5 0.9991008100000002 9.991000000000002E-5 9.991000000000002E-5 9.991000000000002E-5 9.991000000000002E-5 9.991000000000002E-5 9.991000000000002E-5 9.991000000000002E-5 9.991000000000002E-5 9.991000000000002E-5 0.9991008100000002 9.991000000000002E-5 9.991000000000002E-5 9.991000000000002E-5 9.991000000000002E-5 9.991000000000002E-5 9.991000000000002E-5 9.991000000000002E-5 9.991000000000002E-5 9.991000000000002E-5 0.9991008100000002 9.991000000000002E-5 9.991000000000002E-5 9.991000000000002E-5 9.991000000000002E-5 9.991000000000002E-5 9.991000000000002E-5 9.991000000000002E-5 9.991000000000002E-5 0.1562 0.21189999999999998 0.2637 0.21189999999999998 0.11009999999999999 0.0369 0.008 0.0011 9.999999999999999E-5 9.999999999999999E-5 0.17406519 0.23075384999999998 0.27114577 0.19966006999999997 0.09218156 0.026694659999999995 0.00479904 4.999E-4 9.997999999999999E-5 9.997999999999999E-5 0.4394242256057578 0.35055977649440223 0.17103158828968415 0.03538584964614151 0.0030987599690124002 9.995999900040002E-5 9.995999900040002E-5 9.995999900040002E-5 9.995999900040002E-5 9.995999900040002E-5 0.8231238100000001 0.16398521000000002 0.012091540000000001 1.9986000000000003E-4 9.993000000000001E-5 9.993000000000001E-5 9.993000000000001E-5 9.993000000000001E-5 9.993000000000001E-5 9.993000000000001E-5 0.9988009599999997 3.996799999999999E-4 9.991999999999998E-5 9.991999999999998E-5 9.991999999999998E-5 9.991999999999998E-5 9.991999999999998E-5 9.991999999999998E-5 9.991999999999998E-5 9.991999999999998E-5 0.9991008100000002 9.991000000000002E-5 9.991000000000002E-5 9.991000000000002E-5 9.991000000000002E-5 9.991000000000002E-5 9.991000000000002E-5 9.991000000000002E-5 9.991000000000002E-5 9.991000000000002E-5 0.9991008100000002 9.991000000000002E-5 9.991000000000002E-5 9.991000000000002E-5 9.991000000000002E-5 9.991000000000002E-5 9.991000000000002E-5 9.991000000000002E-5 9.991000000000002E-5 9.991000000000002E-5 0.021689159783108397 0.22858570771414288 0.4990504650094953 0.22858570771414288 0.021289359787106398 3.99799996002E-4 9.99499990005E-5 9.99499990005E-5 9.99499990005E-5 9.99499990005E-5 0.02559232000000001 0.25552334000000004 0.5041487600000001 0.19904029000000006 0.015095470000000003 1.9994000000000007E-4 9.997000000000003E-5 9.997000000000003E-5 9.997000000000003E-5 9.997000000000003E-5 0.09466214 0.51159535 0.36135546 0.03158737 2.9988E-4 9.996E-5 9.996E-5 9.996E-5 9.996E-5 9.996E-5 0.23878061000000006 0.6192903600000002 0.13923038000000001 0.0020989500000000005 9.995000000000003E-5 9.995000000000003E-5 9.995000000000003E-5 9.995000000000003E-5 9.995000000000003E-5 9.995000000000003E-5 0.5311282100000001 0.45138403000000005 0.016788250000000005 9.993E-5 9.993E-5 9.993E-5 9.993E-5 9.993E-5 9.993E-5 9.993E-5 0.8054556399999998 0.19304555999999995 7.993599999999998E-4 9.991999999999998E-5 9.991999999999998E-5 9.991999999999998E-5 9.991999999999998E-5 9.991999999999998E-5 9.991999999999998E-5 9.991999999999998E-5 0.9264514800000002 0.07274908000000001 9.993000000000003E-5 9.993000000000003E-5 9.993000000000003E-5 9.993000000000003E-5 9.993000000000003E-5 9.993000000000003E-5 9.993000000000003E-5 9.993000000000003E-5 9.991000000000002E-5 9.991000000000002E-5 0.9991008100000002 9.991000000000002E-5 9.991000000000002E-5 9.991000000000002E-5 9.991000000000002E-5 9.991000000000002E-5 9.991000000000002E-5 9.991000000000002E-5 9.991000000000002E-5 9.991000000000002E-5 0.9991008100000002 9.991000000000002E-5 9.991000000000002E-5 9.991000000000002E-5 9.991000000000002E-5 9.991000000000002E-5 9.991000000000002E-5 9.991000000000002E-5 9.991000000000002E-5 9.991000000000002E-5 0.9991008100000002 9.991000000000002E-5 9.991000000000002E-5 9.991000000000002E-5 9.991000000000002E-5 9.991000000000002E-5 9.991000000000002E-5 9.991000000000002E-5 9.991000000000002E-5 9.991000000000002E-5 0.9991008100000002 9.991000000000002E-5 9.991000000000002E-5 9.991000000000002E-5 9.991000000000002E-5 9.991000000000002E-5 9.991000000000002E-5 9.991000000000002E-5 9.991000000000002E-5 9.991000000000002E-5 0.9991008100000002 9.991000000000002E-5 9.991000000000002E-5 9.991000000000002E-5 9.991000000000002E-5 9.991000000000002E-5 9.991000000000002E-5 9.991000000000002E-5 9.991000000000002E-5 9.991000000000002E-5 0.9991008100000002 9.991000000000002E-5 9.991000000000002E-5 9.991000000000002E-5 9.991000000000002E-5 9.991000000000002E-5 9.991000000000002E-5 9.991000000000002E-5 9.991000000000002E-5 9.991000000000002E-5 0.9991008100000002 9.991000000000002E-5 9.991000000000002E-5 9.991000000000002E-5 9.991000000000002E-5 9.991000000000002E-5 9.991000000000002E-5 9.991000000000002E-5 0.0841915808419158 0.12008799120087991 0.18718128187181282 0.21707829217078292 0.18718128187181282 0.12008799120087991 0.0572942705729427 0.0202979702029797 0.0053994600539946005 0.0011998800119988 0.0937 0.1336 0.2024 0.2233 0.1795 0.1051 0.0448 0.0139 0.0031 6.0E-4 0.24960016 0.29378249 0.27079168 0.13894442 0.03968413 0.00629748 5.9976E-4 9.996E-5 9.996E-5 9.996E-5 0.5827086500000002 0.31824088000000006 0.08965517000000002 0.008595700000000001 2.9985000000000005E-4 9.995000000000002E-5 9.995000000000002E-5 9.995000000000002E-5 9.995000000000002E-5 9.995000000000002E-5 0.9853102800000002 0.013890280000000003 9.993000000000003E-5 9.993000000000003E-5 9.993000000000003E-5 9.993000000000003E-5 9.993000000000003E-5 9.993000000000003E-5 9.993000000000003E-5 9.993000000000003E-5 0.9991008100000002 9.991000000000002E-5 9.991000000000002E-5 9.991000000000002E-5 9.991000000000002E-5 9.991000000000002E-5 9.991000000000002E-5 9.991000000000002E-5 9.991000000000002E-5 9.991000000000002E-5 0.9991008100000002 9.991000000000002E-5 9.991000000000002E-5 9.991000000000002E-5 9.991000000000002E-5 9.991000000000002E-5 9.991000000000002E-5 9.991000000000002E-5 9.991000000000002E-5 9.991000000000002E-5 0.00289942 0.04619076 0.24165167 0.41821636 0.24165167 0.04619076 0.00289942 9.998E-5 9.998E-5 9.998E-5 0.0034989500349895007 0.05398380053983801 0.26711986267119864 0.42267320422673216 0.21553534215535344 0.03508947035089471 0.0017994600179946003 9.997000099970003E-5 9.997000099970003E-5 9.997000099970003E-5 0.014794079852059203 0.17433026825669734 0.47121151528788485 0.2955817670441824 0.04238304957616951 0.0012994799870052 9.995999900040002E-5 9.995999900040002E-5 9.995999900040002E-5 9.995999900040002E-5 0.04618152953818471 0.36525389634746114 0.47990803520091974 0.10465813895341863 0.0034985999650140012 9.995999900040003E-5 9.995999900040003E-5 9.995999900040003E-5 9.995999900040003E-5 9.995999900040003E-5 0.14971017 0.5878473 0.25144913 0.01039376 9.994E-5 9.994E-5 9.994E-5 9.994E-5 9.994E-5 9.994E-5 0.3460577600000001 0.5855900900000002 0.06735285000000003 3.9972000000000016E-4 9.993000000000004E-5 9.993000000000004E-5 9.993000000000004E-5 9.993000000000004E-5 9.993000000000004E-5 9.993000000000004E-5 0.5348256200000001 0.44828620000000013 0.016188670000000002 9.993000000000003E-5 9.993000000000003E-5 9.993000000000003E-5 9.993000000000003E-5 9.993000000000003E-5 9.993000000000003E-5 9.993000000000003E-5 9.991000000000001E-5 9.991000000000001E-5 9.991000000000001E-5 0.9991008100000001 9.991000000000001E-5 9.991000000000001E-5 9.991000000000001E-5 9.991000000000001E-5 9.991000000000001E-5 9.991000000000001E-5 9.991000000000001E-5 9.991000000000001E-5 9.991000000000001E-5 0.9991008100000001 9.991000000000001E-5 9.991000000000001E-5 9.991000000000001E-5 9.991000000000001E-5 9.991000000000001E-5 9.991000000000001E-5 9.991000000000001E-5 9.991000000000001E-5 9.991000000000001E-5 0.9991008100000001 9.991000000000001E-5 9.991000000000001E-5 9.991000000000001E-5 9.991000000000001E-5 9.991000000000001E-5 9.991000000000001E-5 9.991000000000001E-5 9.991000000000001E-5 9.991000000000001E-5 0.9991008100000001 9.991000000000001E-5 9.991000000000001E-5 9.991000000000001E-5 9.991000000000001E-5 9.991000000000001E-5 9.991000000000001E-5 9.991000000000001E-5 9.991000000000001E-5 9.991000000000001E-5 0.9991008100000001 9.991000000000001E-5 9.991000000000001E-5 9.991000000000001E-5 9.991000000000001E-5 9.991000000000001E-5 9.991000000000001E-5 9.991000000000001E-5 9.991000000000001E-5 9.991000000000001E-5 0.9991008100000001 9.991000000000001E-5 9.991000000000001E-5 9.991000000000001E-5 9.991000000000001E-5 9.991000000000001E-5 9.991000000000001E-5 9.991000000000001E-5 9.991000000000001E-5 9.991000000000001E-5 0.9991008100000001 9.991000000000001E-5 9.991000000000001E-5 9.991000000000001E-5 9.991000000000001E-5 9.991000000000001E-5 9.991000000000001E-5 0.05139486051394861 0.07049295070492952 0.12028797120287972 0.16568343165683436 0.18428157184281577 0.16568343165683436 0.12028797120287972 0.07049295070492952 0.03339666033396661 0.017998200179982004 0.056794320567943195 0.078992100789921 0.132986701329867 0.1780821917808219 0.18968103189681026 0.1607839216078392 0.10838916108389159 0.05819418058194179 0.024797520247975196 0.0112988701129887 0.1497 0.2047 0.26 0.2158 0.1171 0.0415 0.0096 0.0014 1.0E-4 1.0E-4 0.38614554 0.34756098 0.20401839 0.05477809 0.00669732 3.9984E-4 9.996E-5 9.996E-5 9.996E-5 9.996E-5 0.9175577100000002 0.07964425000000001 0.0020985300000000004 9.993000000000003E-5 9.993000000000003E-5 9.993000000000003E-5 9.993000000000003E-5 9.993000000000003E-5 9.993000000000003E-5 9.993000000000003E-5 0.9991008100000002 9.991000000000002E-5 9.991000000000002E-5 9.991000000000002E-5 9.991000000000002E-5 9.991000000000002E-5 9.991000000000002E-5 9.991000000000002E-5 9.991000000000002E-5 9.991000000000002E-5 0.9991008100000002 9.991000000000002E-5 9.991000000000002E-5 9.991000000000002E-5 9.991000000000002E-5 9.991000000000002E-5 9.991000000000002E-5 9.991000000000002E-5 9.991000000000002E-5 9.991000000000002E-5 5.999400059994001E-4 0.009299070092990702 0.07109289071092892 0.2395760423957604 0.3588641135886412 0.2395760423957604 0.07109289071092892 0.009299070092990702 4.999500049995E-4 9.999000099990002E-5 6.998600069986002E-4 0.011097780110977803 0.08218356082183563 0.2623475326234754 0.3628274336282744 0.21765647217656478 0.05648870056488702 0.006298740062987402 2.999400029994001E-4 9.998000099980004E-5 0.0027997200279971995 0.043895610438956095 0.2335766423357664 0.41595840415958396 0.2498750124987501 0.0502949705029497 0.0032996700329966998 9.999000099989999E-5 9.999000099989999E-5 9.999000099989999E-5 0.009198160091981603 0.12177564121775644 0.41401720414017207 0.3659268136592682 0.08388322083883222 0.004799040047990402 9.998000099980003E-5 9.998000099980003E-5 9.998000099980003E-5 9.998000099980003E-5 0.03508597 0.31177529 0.49970012 0.14564174 0.00729708 9.996E-5 9.996E-5 9.996E-5 9.996E-5 9.996E-5 0.10253848 0.52678393 0.34329402 0.02668399 1.9988E-4 9.994E-5 9.994E-5 9.994E-5 9.994E-5 9.994E-5 0.19540230000000006 0.6137931000000002 0.18570715000000004 0.004497750000000002 9.995000000000003E-5 9.995000000000003E-5 9.995000000000003E-5 9.995000000000003E-5 9.995000000000003E-5 9.995000000000003E-5 9.991000000000001E-5 9.991000000000001E-5 9.991000000000001E-5 9.991000000000001E-5 0.9991008100000001 9.991000000000001E-5 9.991000000000001E-5 9.991000000000001E-5 9.991000000000001E-5 9.991000000000001E-5 9.991000000000001E-5 9.991000000000001E-5 9.991000000000001E-5 9.991000000000001E-5 0.9991008100000001 9.991000000000001E-5 9.991000000000001E-5 9.991000000000001E-5 9.991000000000001E-5 9.991000000000001E-5 9.991000000000001E-5 9.991000000000001E-5 9.991000000000001E-5 9.991000000000001E-5 0.9991008100000001 9.991000000000001E-5 9.991000000000001E-5 9.991000000000001E-5 9.991000000000001E-5 9.991000000000001E-5 9.991000000000001E-5 9.991000000000001E-5 9.991000000000001E-5 9.991000000000001E-5 0.9991008100000001 9.991000000000001E-5 9.991000000000001E-5 9.991000000000001E-5 9.991000000000001E-5 9.991000000000001E-5 9.991000000000001E-5 9.991000000000001E-5 9.991000000000001E-5 9.991000000000001E-5 0.9991008100000001 9.991000000000001E-5 9.991000000000001E-5 9.991000000000001E-5 9.991000000000001E-5 9.991000000000001E-5 9.991000000000001E-5 9.991000000000001E-5 9.991000000000001E-5 9.991000000000001E-5 0.9991008100000001 9.991000000000001E-5 9.991000000000001E-5 9.991000000000001E-5 9.991000000000001E-5 9.991000000000001E-5 9.991000000000001E-5 9.991000000000001E-5 9.991000000000001E-5 9.991000000000001E-5 0.9991008100000001 9.991000000000001E-5 9.991000000000001E-5 9.991000000000001E-5 9.991000000000001E-5 9.991000000000001E-5 0.0345 0.0441 0.0776 0.116 0.1477 0.1601 0.1477 0.116 0.0776 0.0787 0.03790758 0.0495099 0.08661732 0.12752551 0.15803161 0.16483297 0.14462893 0.10672134 0.06631326 0.05791158 0.09619038096190383 0.13718628137186284 0.20617938206179384 0.22447755224477553 0.17708229177082294 0.10118988101189881 0.04189581041895811 0.012598740125987403 0.0026997300269973007 4.999500049995001E-4 0.2563231025632311 0.2982105429821055 0.2689193226891933 0.13365990133659902 0.03658902036589021 0.005498350054983501 4.998500049985001E-4 9.997000099970003E-5 9.997000099970003E-5 9.997000099970003E-5 0.78872676 0.19198481 0.01828903 3.9976E-4 9.994E-5 9.994E-5 9.994E-5 9.994E-5 9.994E-5 9.994E-5 0.9991008100000002 9.991000000000002E-5 9.991000000000002E-5 9.991000000000002E-5 9.991000000000002E-5 9.991000000000002E-5 9.991000000000002E-5 9.991000000000002E-5 9.991000000000002E-5 9.991000000000002E-5 0.9991008100000002 9.991000000000002E-5 9.991000000000002E-5 9.991000000000002E-5 9.991000000000002E-5 9.991000000000002E-5 9.991000000000002E-5 9.991000000000002E-5 9.991000000000002E-5 9.991000000000002E-5 9.999999999999999E-5 0.0022 0.0193 0.0911 0.23039999999999997 0.3138 0.23039999999999997 0.0911 0.0193 0.0023 2.0002000200020003E-4 0.0026002600260026008 0.022802280228022807 0.10421042104210422 0.2503250325032504 0.31733173317331737 0.21232123212321233 0.0749074907490749 0.013901390139013902 0.0014001400140014003 6.998600069986E-4 0.0111977601119776 0.08278344082783441 0.2636472726364727 0.36292741362927416 0.2163567321635673 0.0557888405578884 0.0061987600619876 2.9994000299940005E-4 9.99800009998E-5 0.0021993399780066 0.035389379646106195 0.20133959798660397 0.40167949598320496 0.2829151271708487 0.0700789792992102 0.005998199940017999 1.999399980006E-4 9.99699990003E-5 9.99699990003E-5 0.008697390000000003 0.11656503000000003 0.4060781800000001 0.3727881600000001 0.08997301000000003 0.005498350000000002 9.997000000000003E-5 9.997000000000003E-5 9.997000000000003E-5 9.997000000000003E-5 0.028291510000000002 0.27271818000000003 0.5048485500000001 0.18154554000000003 0.01209637 9.997E-5 9.997E-5 9.997E-5 9.997E-5 9.997E-5 0.06037585 0.42013195 0.44622151 0.07127149 0.0014994 9.996E-5 9.996E-5 9.996E-5 9.996E-5 9.996E-5 9.991000000000001E-5 9.991000000000001E-5 9.991000000000001E-5 9.991000000000001E-5 9.991000000000001E-5 0.9991008100000001 9.991000000000001E-5 9.991000000000001E-5 9.991000000000001E-5 9.991000000000001E-5 9.991000000000001E-5 9.991000000000001E-5 9.991000000000001E-5 9.991000000000001E-5 9.991000000000001E-5 0.9991008100000001 9.991000000000001E-5 9.991000000000001E-5 9.991000000000001E-5 9.991000000000001E-5 9.991000000000001E-5 9.991000000000001E-5 9.991000000000001E-5 9.991000000000001E-5 9.991000000000001E-5 0.9991008100000001 9.991000000000001E-5 9.991000000000001E-5 9.991000000000001E-5 9.991000000000001E-5 9.991000000000001E-5 9.991000000000001E-5 9.991000000000001E-5 9.991000000000001E-5 9.991000000000001E-5 0.9991008100000001 9.991000000000001E-5 9.991000000000001E-5 9.991000000000001E-5 9.991000000000001E-5 9.991000000000001E-5 9.991000000000001E-5 9.991000000000001E-5 9.991000000000001E-5 9.991000000000001E-5 0.9991008100000001 9.991000000000001E-5 9.991000000000001E-5 9.991000000000001E-5 9.991000000000001E-5 9.991000000000001E-5 9.991000000000001E-5 9.991000000000001E-5 9.991000000000001E-5 9.991000000000001E-5 0.9991008100000001 9.991000000000001E-5 9.991000000000001E-5 9.991000000000001E-5 9.991000000000001E-5 9.991000000000001E-5 9.991000000000001E-5 9.991000000000001E-5 9.991000000000001E-5 9.991000000000001E-5 0.9991008100000001 9.991000000000001E-5 9.991000000000001E-5 9.991000000000001E-5 9.991000000000001E-5 0.024997500249975005 0.029397060293970604 0.05169483051694831 0.08029197080291972 0.10998900109989002 0.13288671132886712 0.14148585141485853 0.13288671132886712 0.10998900109989002 0.18638136186381363 0.027297270272972705 0.03289671032896711 0.05799420057994202 0.08939106089391062 0.12028797120287972 0.14158584141585842 0.14558544145585445 0.13088691130886912 0.10278972102789723 0.15128487151284872 0.06600660066006601 0.09300930093009302 0.15281528152815282 0.19511951195119512 0.1934193419341934 0.1489148914891489 0.08910891089108912 0.041404140414041404 0.014901490149014903 0.005300530053005301 0.17516497 0.23185363 0.27144571 0.19886023 0.09118176 0.02609478 0.00469906 4.999E-4 9.998E-5 9.998E-5 0.63741755 0.29262443 0.06486108 0.0044973 9.994E-5 9.994E-5 9.994E-5 9.994E-5 9.994E-5 9.994E-5 0.9988009599999997 3.996799999999999E-4 9.991999999999998E-5 9.991999999999998E-5 9.991999999999998E-5 9.991999999999998E-5 9.991999999999998E-5 9.991999999999998E-5 9.991999999999998E-5 9.991999999999998E-5 0.9991008100000002 9.991000000000002E-5 9.991000000000002E-5 9.991000000000002E-5 9.991000000000002E-5 9.991000000000002E-5 9.991000000000002E-5 9.991000000000002E-5 9.991000000000002E-5 9.991000000000002E-5 1.0001000100009999E-4 6.000600060006E-4 0.0056005600560056 0.031003100310030996 0.1051105110511051 0.21832183218321827 0.27852785278527853 0.21832183218321827 0.1051105110511051 0.037303730373037296 1.0E-4 7.0E-4 0.0067 0.0364 0.1192 0.2357 0.2817 0.2034 0.0887 0.0274 2.0E-4 0.0032 0.0273 0.1201 0.2718 0.3172 0.1909 0.0591 0.0094 8.0E-4 5.999400059994E-4 0.010598940105989399 0.078992100789921 0.2561743825617438 0.3621637836216378 0.2236776322367763 0.06029397060293971 0.006999300069993 3.999600039996E-4 9.99900009999E-5 0.0024995 0.03959208 0.21785643 0.410018 0.26604679 0.05918816 0.0044991 9.998E-5 9.998E-5 9.998E-5 0.008297510000000003 0.11206638000000003 0.3989803100000001 0.3784864500000001 0.09557133000000002 0.006198140000000002 9.997000000000003E-5 9.997000000000003E-5 9.997000000000003E-5 9.997000000000003E-5 0.018694390186943903 0.20613816206138158 0.4907527749075277 0.25512346255123464 0.0282915102829151 5.998200059982001E-4 9.99700009997E-5 9.99700009997E-5 9.99700009997E-5 9.99700009997E-5 9.991000000000001E-5 9.991000000000001E-5 9.991000000000001E-5 9.991000000000001E-5 9.991000000000001E-5 9.991000000000001E-5 0.9991008100000001 9.991000000000001E-5 9.991000000000001E-5 9.991000000000001E-5 9.991000000000001E-5 9.991000000000001E-5 9.991000000000001E-5 9.991000000000001E-5 9.991000000000001E-5 9.991000000000001E-5 0.9991008100000001 9.991000000000001E-5 9.991000000000001E-5 9.991000000000001E-5 9.991000000000001E-5 9.991000000000001E-5 9.991000000000001E-5 9.991000000000001E-5 9.991000000000001E-5 9.991000000000001E-5 0.9991008100000001 9.991000000000001E-5 9.991000000000001E-5 9.991000000000001E-5 9.991000000000001E-5 9.991000000000001E-5 9.991000000000001E-5 9.991000000000001E-5 9.991000000000001E-5 9.991000000000001E-5 0.9991008100000001 9.991000000000001E-5 9.991000000000001E-5 9.991000000000001E-5 9.991000000000001E-5 9.991000000000001E-5 9.991000000000001E-5 9.991000000000001E-5 9.991000000000001E-5 9.991000000000001E-5 0.9991008100000001 9.991000000000001E-5 9.991000000000001E-5 9.991000000000001E-5 9.991000000000001E-5 9.991000000000001E-5 9.991000000000001E-5 9.991000000000001E-5 9.991000000000001E-5 9.991000000000001E-5 0.9991008100000001 9.991000000000001E-5 9.991000000000001E-5 9.991000000000001E-5 9.991000000000001E-5 9.991000000000001E-5 9.991000000000001E-5 9.991000000000001E-5 9.991000000000001E-5 9.991000000000001E-5 0.9991008100000001 9.991000000000001E-5 9.991000000000001E-5 9.991000000000001E-5 0.019098090190980903 0.0205979402059794 0.0358964103589641 0.0564943505649435 0.08049195080491951 0.10358964103589641 0.1204879512048795 0.1266873312668733 0.1204879512048795 0.31616838316168383 0.0207 0.023 0.0403 0.0633 0.0891 0.1128 0.128 0.1304 0.1193 0.2731 0.047795220477952205 0.06489351064893512 0.11158884111588842 0.15648435156484353 0.17918208179182082 0.16758324167583244 0.12788721127887212 0.07959204079592042 0.04049595040495951 0.024497550244975505 0.12410000000000002 0.17410000000000003 0.23990000000000003 0.22640000000000002 0.14630000000000004 0.06480000000000001 0.019600000000000003 0.004100000000000001 6.000000000000001E-4 1.0000000000000002E-4 0.4983508200000001 0.34392804000000005 0.13533233000000003 0.020689660000000002 0.0011994000000000002 9.995E-5 9.995E-5 9.995E-5 9.995E-5 9.995E-5 0.9957034399999998 0.003497199999999999 9.991999999999998E-5 9.991999999999998E-5 9.991999999999998E-5 9.991999999999998E-5 9.991999999999998E-5 9.991999999999998E-5 9.991999999999998E-5 9.991999999999998E-5 0.9991008100000002 9.991000000000002E-5 9.991000000000002E-5 9.991000000000002E-5 9.991000000000002E-5 9.991000000000002E-5 9.991000000000002E-5 9.991000000000002E-5 9.991000000000002E-5 9.991000000000002E-5 9.999000099990003E-5 1.9998000199980006E-4 0.0017998200179982005 0.010698930106989303 0.042595740425957415 0.11388861113888613 0.20557944205579445 0.25027497250274977 0.20557944205579445 0.16928307169283077 1.0001000100009999E-4 2.0002000200019997E-4 0.0022002200220022 0.0127012701270127 0.04950495049504949 0.1281128112811281 0.22072207220722068 0.2531253125312531 0.19321932193219318 0.1401140114011401 1.0E-4 0.001 0.0093 0.0487 0.1491 0.2667 0.279 0.1707 0.061 0.0144 1.9998000199980006E-4 0.003499650034996501 0.029497050294970507 0.12758724127587243 0.2809719028097191 0.3157684231576843 0.18108189181081896 0.05289471052894711 0.007899210078992103 5.999400059994002E-4 7.999999999999999E-4 0.013699999999999999 0.09789999999999999 0.2911 0.3623 0.18909999999999996 0.0412 0.0036999999999999997 9.999999999999999E-5 9.999999999999999E-5 0.0026997300269973002 0.042995700429957 0.2303769623037696 0.414958504149585 0.2531746825317468 0.051994800519948 0.0034996500349965 9.99900009999E-5 9.99900009999E-5 9.99900009999E-5 0.006197520061975198 0.08816473088164728 0.35475810354758097 0.4058376640583765 0.13234706132347057 0.012095160120951598 2.998800029987999E-4 9.996000099959998E-5 9.996000099959998E-5 9.996000099959998E-5 9.991000000000001E-5 9.991000000000001E-5 9.991000000000001E-5 9.991000000000001E-5 9.991000000000001E-5 9.991000000000001E-5 9.991000000000001E-5 0.9991008100000001 9.991000000000001E-5 9.991000000000001E-5 9.991000000000001E-5 9.991000000000001E-5 9.991000000000001E-5 9.991000000000001E-5 9.991000000000001E-5 9.991000000000001E-5 9.991000000000001E-5 0.9991008100000001 9.991000000000001E-5 9.991000000000001E-5 9.991000000000001E-5 9.991000000000001E-5 9.991000000000001E-5 9.991000000000001E-5 9.991000000000001E-5 9.991000000000001E-5 9.991000000000001E-5 0.9991008100000001 9.991000000000001E-5 9.991000000000001E-5 9.991000000000001E-5 9.991000000000001E-5 9.991000000000001E-5 9.991000000000001E-5 9.991000000000001E-5 9.991000000000001E-5 9.991000000000001E-5 0.9991008100000001 9.991000000000001E-5 9.991000000000001E-5 9.991000000000001E-5 9.991000000000001E-5 9.991000000000001E-5 9.991000000000001E-5 9.991000000000001E-5 9.991000000000001E-5 9.991000000000001E-5 0.9991008100000001 9.991000000000001E-5 9.991000000000001E-5 9.991000000000001E-5 9.991000000000001E-5 9.991000000000001E-5 9.991000000000001E-5 9.991000000000001E-5 9.991000000000001E-5 9.991000000000001E-5 0.9991008100000001 9.991000000000001E-5 9.991000000000001E-5 9.991000000000001E-5 9.991000000000001E-5 9.991000000000001E-5 9.991000000000001E-5 9.991000000000001E-5 9.991000000000001E-5 9.991000000000001E-5 0.9991008100000001 9.991000000000001E-5 9.991000000000001E-5 0.0152015201520152 0.0151015101510151 0.0259025902590259 0.0408040804080408 0.0592059205920592 0.07910791079107911 0.09720972097209721 0.1101110111011101 0.1147114711471147 0.4426442644264426 0.0164016401640164 0.0168016801680168 0.029002900290029006 0.04580458045804581 0.06600660066006601 0.08720872087208721 0.10551055105510551 0.11671167116711673 0.11811181118111812 0.39843984398439847 0.036196380361963806 0.04679532046795321 0.08199180081991803 0.12168783121687833 0.15288471152884714 0.16268373162683733 0.1463853614638536 0.11158884111588843 0.07199280071992802 0.06779322067793221 0.0912 0.1302 0.1986 0.222 0.1817 0.1089 0.0478 0.0153 0.0036 7.0E-4 0.38504598 0.34736106 0.20471811 0.05527789 0.00679728 