<?xml version="1.0" encoding="US-ASCII"?>

<!--
  Bayesian network in XMLBIF v0.3 (BayesNet Interchange Format)
  Produced by SamIam http://reasoning.cs.ucla.edu/samiam
  Output created 26 juin 2017 18:13:10
-->

<BIF VERSION="0.3">
<NETWORK>
  <NAME>bayesiannetwork</NAME>

  <VARIABLE TYPE="nature">
    <NAME>Raf</NAME>
    <OUTCOME>1</OUTCOME>
    <OUTCOME>2</OUTCOME>
    <OUTCOME>3</OUTCOME>
    <PROPERTY>position = (750, 0)</PROPERTY>
  </VARIABLE>

  <VARIABLE TYPE="nature">
    <NAME>Plcg</NAME>
    <OUTCOME>1</OUTCOME>
    <OUTCOME>2</OUTCOME>
    <OUTCOME>3</OUTCOME>
    <PROPERTY>position = (0, 0)</PROPERTY>
  </VARIABLE>

  <VARIABLE TYPE="nature">
    <NAME>PKA</NAME>
    <OUTCOME>1</OUTCOME>
    <OUTCOME>2</OUTCOME>
    <OUTCOME>3</OUTCOME>
    <PROPERTY>position = (450, 0)</PROPERTY>
  </VARIABLE>

  <VARIABLE TYPE="nature">
    <NAME>Erk</NAME>
    <OUTCOME>1</OUTCOME>
    <OUTCOME>2</OUTCOME>
    <OUTCOME>3</OUTCOME>
    <PROPERTY>position = (450, -75)</PROPERTY>
  </VARIABLE>

  <VARIABLE TYPE="nature">
    <NAME>PKC</NAME>
    <OUTCOME>1</OUTCOME>
    <OUTCOME>2</OUTCOME>
    <OUTCOME>3</OUTCOME>
    <PROPERTY>position = (150, 0)</PROPERTY>
  </VARIABLE>

  <VARIABLE TYPE="nature">
    <NAME>P38</NAME>
    <OUTCOME>1</OUTCOME>
    <OUTCOME>2</OUTCOME>
    <OUTCOME>3</OUTCOME>
    <PROPERTY>position = (0, -75)</PROPERTY>
  </VARIABLE>

  <VARIABLE TYPE="nature">
    <NAME>PIP2</NAME>
    <OUTCOME>1</OUTCOME>
    <OUTCOME>2</OUTCOME>
    <OUTCOME>3</OUTCOME>
    <PROPERTY>position = (600, 0)</PROPERTY>
  </VARIABLE>

  <VARIABLE TYPE="nature">
    <NAME>Jnk</NAME>
    <OUTCOME>1</OUTCOME>
    <OUTCOME>2</OUTCOME>
    <OUTCOME>3</OUTCOME>
    <PROPERTY>position = (150, -75)</PROPERTY>
  </VARIABLE>

  <VARIABLE TYPE="nature">
    <NAME>PIP3</NAME>
    <OUTCOME>1</OUTCOME>
    <OUTCOME>2</OUTCOME>
    <OUTCOME>3</OUTCOME>
    <OBSERVED>0</OBSERVED>
    <PROPERTY>position = (300, 0)</PROPERTY>
  </VARIABLE>

  <VARIABLE TYPE="nature">
    <NAME>Mek</NAME>
    <OUTCOME>1</OUTCOME>
    <OUTCOME>2</OUTCOME>
    <OUTCOME>3</OUTCOME>
    <PROPERTY>position = (300, -75)</PROPERTY>
  </VARIABLE>

  <VARIABLE TYPE="nature">
    <NAME>Akt</NAME>
    <OUTCOME>1</OUTCOME>
    <OUTCOME>2</OUTCOME>
    <OUTCOME>3</OUTCOME>
    <OBSERVED>1</OBSERVED>
    <PROPERTY>position = (600, -75)</PROPERTY>
  </VARIABLE>

  <DEFINITION>
    <FOR>Raf</FOR>
    <GIVEN>PKA</GIVEN>
    <GIVEN>PKC</GIVEN>
    <TABLE>0.06228765937712341 0.14722536852774631 0.7904869720951303 0.36942676305732375 0.33121016687898336 0.29936307006369306 0.875 0.125 0.0 0.4475202 0.3125721 0.2399077 0.5508333 0.3929167 0.05625 0.8843813 0.1156187 0.0 0.8429906584299066 0.12710280127102802 0.029906540299065403 0.75 0.15909091 0.09090909 0.8461538 0.1538462 0.0 </TABLE>
  </DEFINITION>

  <DEFINITION>
    <FOR>Plcg</FOR>
    <TABLE>0.8122222281222223 0.08333333083333332 0.10444444104444442 </TABLE>
  </DEFINITION>

  <DEFINITION>
    <FOR>PKA</FOR>
    <GIVEN>PKC</GIVEN>
    <TABLE>0.38643326135667383 0.3794310620568938 0.23413567658643233 0.0603614 0.92272203 0.01691657 0.0155642 0.95914397 0.02529183 </TABLE>
  </DEFINITION>

  <DEFINITION>
    <FOR>Erk</FOR>
    <GIVEN>Mek</GIVEN>
    <GIVEN>PKA</GIVEN>
    <TABLE>0.8506666614933334 0.13866666861333332 0.010666669893333302 0.11770111177011118 0.6919540691954069 0.19034481903448192 0.07401033 0.70051635 0.22547332 0.3870967612903239 0.48387095161290483 0.12903228709677128 0.04893754 0.72826787 0.22279459 0.0 0.1 0.9 0.00862069 0.18793103 0.80344828 0.0 0.75 0.25 0.0 0.0 1.0 </TABLE>
  </DEFINITION>

  <DEFINITION>
    <FOR>PKC</FOR>
    <TABLE>0.42314814576851856 0.4816666651833334 0.09518518904814811 </TABLE>
  </DEFINITION>

  <DEFINITION>
    <FOR>P38</FOR>
    <GIVEN>PKA</GIVEN>
    <GIVEN>PKC</GIVEN>
    <TABLE>0.30690827 0.06455266 0.62853907 0.656051 0.343949 0.0 0.875 0.125 0.0 0.919261822 0.078431373 0.002306805 0.815 0.185 0.0 0.803245436 0.192697769 0.004056795 0.8074766319252337 0.09158878908411212 0.10093457899065421 0.3863636 0.1590909 0.4545455 0.7692308 0.2307692 0.0 </TABLE>
  </DEFINITION>

  <DEFINITION>
    <FOR>PIP2</FOR>
    <GIVEN>PIP3</GIVEN>
    <GIVEN>Plcg</GIVEN>
    <TABLE>0.996868476 0.003131524 0.0 1.0 0.0 0.0 0.2217573221757322 0.49372384937238495 0.28451882845188287 0.98674822 0.01325178 0.0 0.95789474 0.04210526 0.0 0.0766129 0.391129 0.5322581 0.8724420190000001 0.12005457000000001 0.007503411000000001 0.521875 0.4625 0.015625 0.02597403 0.05194805 0.92207792 </TABLE>
  </DEFINITION>

  <DEFINITION>
    <FOR>Jnk</FOR>
    <GIVEN>PKA</GIVEN>
    <GIVEN>PKC</GIVEN>
    <TABLE>0.2899207 0.2457531 0.4643262 0.5796178 0.4203822 0.0 0.0 1.0 0.0 0.5767013 0.4232987 0.0 0.6129167 0.3870833 0.0 0.04462474955375251 0.9350912706490874 0.020283979797160203 0.996261682 0.003738318 0.0 0.8636364 0.1363636 0.0 0.1538462 0.8461538 0.0 </TABLE>
  </DEFINITION>

  <DEFINITION>
    <FOR>PIP3</FOR>
    <GIVEN>Plcg</GIVEN>
    <TABLE>0.2184223 0.4473324 0.3342453 0.07777778 0.21111111 0.71111111 0.4237589 0.4397163 0.1365248 </TABLE>
  </DEFINITION>

  <DEFINITION>
    <FOR>Mek</FOR>
    <GIVEN>PKA</GIVEN>
    <GIVEN>PKC</GIVEN>
    <GIVEN>Raf</GIVEN>
    <TABLE>0.7454545 0.2545455 0.0 0.3846154 0.1230769 0.4923077 0.26217765 0.001432665 0.736389685 0.7068966 0.2931034 0.0 0.2692308 0.7307692 0.0 0.85106383 0.10638298 0.04255319 0.8571429 0.1428571 0.0 0.0 1.0 0.0 0.33333333333333337 0.33333333333333337 0.33333333333333337 0.757732 0.242268 0.0 0.34317343200000006 0.6494464940000001 0.007380074000000001 0.8653846113461537 0.1009615389903846 0.033653849663461494 0.714826 0.285174 0.0 0.274655355 0.720042418 0.005302227 0.28148150000000005 0.5851852000000001 0.13333330000000002 0.8256881 0.1743119 0.0 0.1052632 0.8947368 0.0 0.33333333333333337 0.33333333333333337 0.33333333333333337 0.997782705 0.002217295 0.0 1.0 0.0 0.0 0.9375 0.0 0.0625 0.96969697 0.03030303 0.0 0.8571429 0.1428571 0.0 0.5 0.5 0.0 0.7272727 0.2727273 0.0 0.0 1.0 0.0 0.33333333333333337 0.33333333333333337 0.33333333333333337 </TABLE>
  </DEFINITION>

  <DEFINITION>
    <FOR>Akt</FOR>
    <GIVEN>Erk</GIVEN>
    <GIVEN>PKA</GIVEN>
    <TABLE>0.6722222 0.3277778 0.0 0.6204819 0.3795181 0.0 0.97674419 0.02325581 0.0 0.3349515 0.6650485 0.0 0.8214285714821429 0.17819548871781954 3.75939800037594E-4 0.94852941 0.05147059 0.0 0.0 0.1182573 0.8817427 0.17708333317708333 0.813802083813802 0.009114583009114583 0.1702128 0.8297872 0.0 </TABLE>
  </DEFINITION>

</NETWORK>
</BIF>
